{"generatedAt":"2026-04-23T09:20:24.528Z","source":{"name":"PolyMetriX curated glass-transition dataset","url":"https://zenodo.org/records/15210035/files/LAMALAB_CURATED_Tg_structured_polymerclass.csv?download=1","license":"CC BY 4.0 per PolyMetriX/Zenodo metadata"},"featureNames":["length","carbon","aromaticCarbon","oxygen","nitrogen","sulfur","silicon","fluorine","chlorine","bromine","stars","branches","rings","doubleBonds","tripleBonds","heteroRatio","aromaticRatio","estimatedMass"],"ridge":{"intercept":0,"weights":[417.9839049825759,-122.30797952562679,-1.0410168659026802,-46.49917331056466,-23.21434498052186,11.974960712133454,-6.770559821054062,-7.404319666399527,-15.092926358880844,1.4827367900236041,2.0676573950118544,0,90.4862622496807,140.10852461614652,24.89523755406521,-0.06880966908991745,9.378436831074147,48.535069689491074,-8.182421207943026],"means":[67.97003807316669,27.837775202780996,18.80152292666777,4.259725211057772,1.5854990895547094,0.19731832478066547,0.09418970369144182,0.9490150637311703,0.05214368482039398,0.029134249296474093,2,7.363681509683827,8.028472107267008,2.6292004634994206,0.07780168846217514,0.10499879590834353,0.23796787245729578,455.87954643271],"scales":[35.28341884284171,15.788962782710051,15.471965912000543,2.8377026020324085,1.6829519847351901,0.6071358149884487,0.46840342054334083,2.987151668976105,0.37918328042326416,0.2821372929939828,1,4.77540586711745,6.528040479157907,2.056051546524646,0.40755836997102,0.04595883191945876,0.13984711195494337,243.0017033539091]},"trainingRows":6041,"testRows":1326,"metrics":{"maeK":40.4,"rmseK":53.32,"r2":0.779},"classCounts":{"Polysiloxanes":238,"Polyvinyls":254,"Polyphenylenes":104,"Polydienes":41,"Polyimides":1765,"Polyamides":486,"Polyesters":660,"Polyoxides":1748,"Polysulfides":216,"Other class":172,"Polyimines":265,"Polyphosphazenes":107,"Polyureas":39,"Polyurethanes":123,"Polyketones":7,"Polyacrylics":617,"Polystyrenes":241,"Polyanhydrides":28,"Polyhalo-olefins":40,"Polyolefins":55,"Polycarbonates":160,"Polyethers":1},"histogram":[{"from":-180,"to":-150,"count":1},{"from":-150,"to":-120,"count":2},{"from":-120,"to":-90,"count":5},{"from":-90,"to":-60,"count":7},{"from":-60,"to":-30,"count":46},{"from":-30,"to":0,"count":71},{"from":0,"to":30,"count":128},{"from":30,"to":60,"count":190},{"from":60,"to":90,"count":223},{"from":90,"to":120,"count":218},{"from":120,"to":150,"count":166},{"from":150,"to":180,"count":104},{"from":180,"to":210,"count":91},{"from":210,"to":240,"count":97},{"from":240,"to":270,"count":77},{"from":270,"to":300,"count":58},{"from":300,"to":330,"count":16},{"from":330,"to":360,"count":1}],"evalPoints":[{"actual":252,"predicted":271.5},{"actual":57,"predicted":63.4},{"actual":70,"predicted":44.4},{"actual":87,"predicted":78.9},{"actual":89,"predicted":65.7},{"actual":142.9,"predicted":96.1},{"actual":-35,"predicted":-13.2},{"actual":-50,"predicted":84.8},{"actual":35,"predicted":47.3},{"actual":-64.2,"predicted":-57},{"actual":47,"predicted":51.7},{"actual":165,"predicted":86.9},{"actual":157,"predicted":185.6},{"actual":197,"predicted":151.4},{"actual":-46,"predicted":-112.2},{"actual":177,"predicted":240.4},{"actual":72,"predicted":114.6},{"actual":62.5,"predicted":91},{"actual":230,"predicted":257.7},{"actual":175,"predicted":211},{"actual":106.9,"predicted":46.5},{"actual":160,"predicted":188.9},{"actual":-36,"predicted":73.3},{"actual":399.8,"predicted":299.1},{"actual":294,"predicted":254.4},{"actual":258,"predicted":251.8},{"actual":-40,"predicted":21.3},{"actual":189,"predicted":205.5},{"actual":270,"predicted":274},{"actual":225,"predicted":222.6},{"actual":99,"predicted":123.8},{"actual":-36,"predicted":8.4},{"actual":220,"predicted":152.1},{"actual":410,"predicted":277.2},{"actual":204,"predicted":205.5},{"actual":136,"predicted":134.4},{"actual":-3,"predicted":68.7},{"actual":213,"predicted":210.2},{"actual":65,"predicted":102.1},{"actual":271,"predicted":262.5},{"actual":466,"predicted":320.4},{"actual":-73,"predicted":-6.8},{"actual":21,"predicted":42.8},{"actual":378,"predicted":250.8},{"actual":173,"predicted":163.7},{"actual":282,"predicted":274},{"actual":42,"predicted":24.2},{"actual":295,"predicted":231},{"actual":72,"predicted":87.5},{"actual":140,"predicted":157.4},{"actual":115,"predicted":211.7},{"actual":208,"predicted":242.8},{"actual":151,"predicted":106.9},{"actual":102,"predicted":72.6},{"actual":175,"predicted":182.4},{"actual":-15,"predicted":8.5},{"actual":175,"predicted":181.1},{"actual":48,"predicted":80.1},{"actual":-65,"predicted":-16.4},{"actual":225,"predicted":107.8},{"actual":-50,"predicted":-10.4},{"actual":118,"predicted":80.2},{"actual":236,"predicted":273.6},{"actual":161.9,"predicted":172.5},{"actual":163,"predicted":155.3},{"actual":-80,"predicted":-71.4},{"actual":150,"predicted":48.8},{"actual":52,"predicted":35},{"actual":80,"predicted":92.6},{"actual":365,"predicted":291.4},{"actual":76,"predicted":17.4},{"actual":160,"predicted":232.7},{"actual":130,"predicted":131},{"actual":93,"predicted":72.9},{"actual":325,"predicted":288.6},{"actual":166,"predicted":157.3},{"actual":321,"predicted":260.7},{"actual":17,"predicted":22.4},{"actual":211,"predicted":82.9},{"actual":268,"predicted":195.6},{"actual":66,"predicted":94},{"actual":101,"predicted":119.6},{"actual":231,"predicted":175.5},{"actual":200,"predicted":134.4},{"actual":215,"predicted":191.9},{"actual":-84,"predicted":-16.5},{"actual":26,"predicted":27.5},{"actual":42,"predicted":42.5},{"actual":47,"predicted":52.4},{"actual":288,"predicted":257.8},{"actual":105,"predicted":109.2},{"actual":170,"predicted":175.8},{"actual":144,"predicted":157},{"actual":324,"predicted":218.1},{"actual":116.9,"predicted":104.1},{"actual":392,"predicted":303.7},{"actual":92,"predicted":138},{"actual":107,"predicted":115.4},{"actual":178,"predicted":222.2},{"actual":229,"predicted":255.1},{"actual":150,"predicted":178.7},{"actual":10.9,"predicted":3.4},{"actual":287,"predicted":292.3},{"actual":-62.5,"predicted":-9.3},{"actual":143,"predicted":126.9},{"actual":196,"predicted":122.6},{"actual":-73,"predicted":49.3},{"actual":257,"predicted":244.8},{"actual":140,"predicted":172},{"actual":400,"predicted":302.5},{"actual":231,"predicted":272.5},{"actual":121,"predicted":129.5},{"actual":-38,"predicted":-33.4},{"actual":66.5,"predicted":-17},{"actual":274,"predicted":155.8},{"actual":160,"predicted":150.3},{"actual":237.5,"predicted":212.2},{"actual":146.9,"predicted":111.5},{"actual":186,"predicted":140.5},{"actual":280,"predicted":131.9}],"neighborIndex":[{"id":2284,"tgK":228.65,"scaled":[-1.0478,-0.9398,-1.2152,0.6133,-0.9421,-0.325,-0.2011,-0.3177,-0.1375,-0.1033,0,-1.1232,-1.2298,-0.306,-0.1909,1.9267,-1.7016,-0.8385]},{"id":2593,"tgK":271.65,"scaled":[-1.1895,-1.1298,-0.8274,-1.5011,-0.9421,-0.325,1.9338,-0.3177,-0.1375,-0.1033,0,-1.1232,-0.9235,-1.2788,-0.1909,-1.4478,-0.0515,-1.2662]},{"id":3675,"tgK":569.15,"scaled":[0.4543,0.1369,0.5945,0.6133,1.4347,-0.325,-0.2011,-0.3177,-0.1375,-0.1033,0,0.3427,0.6084,1.6395,-0.1909,0.3057,0.6819,0.2323]},{"id":2703,"tgK":491.15,"scaled":[1.6447,1.1503,0.7238,0.6133,2.6231,-0.325,-0.2011,1.6909,-0.1375,-0.1033,0,2.0179,0.9148,1.1531,7.17,0.8237,0.0009,1.6076]},{"id":2618,"tgK":312.15,"scaled":[-1.3879,-1.4464,-1.2152,-1.1487,-0.3479,1.3221,-0.2011,-0.3177,-0.1375,-0.1033,0,-1.1232,-1.2298,-0.7924,-0.1909,1.1509,-1.7016,-1.3735]},{"id":2492,"tgK":383.15,"scaled":[-0.5376,-0.5597,-0.5689,-0.0915,0.2463,-0.325,-0.2011,-0.3177,-0.1375,-0.1033,0,-0.7044,-0.3107,0.6667,-0.1909,0.3797,-0.2423,-0.5583]},{"id":7198,"tgK":565.15,"scaled":[0.1426,0.0103,0.5945,0.6133,0.2463,-0.325,-0.2011,-0.3177,-0.1375,-0.1033,0,-0.0762,0.6084,0.6667,-0.1909,0.0999,1.0411,0.0182]},{"id":5258,"tgK":319.15,"scaled":[-0.3959,-0.7498,-0.4396,-0.4439,-0.9421,-0.325,-0.2011,1.6909,-0.1375,-0.1033,0,0.3427,-0.6171,-0.7924,-0.1909,1.3418,-0.1126,-0.4186]},{"id":2273,"tgK":169.15,"scaled":[0.1709,-0.6231,-1.2152,0.6133,-0.9421,-0.325,10.4735,-0.3177,-0.1375,-0.1033,0,0.9709,-1.2298,-1.2788,-0.1909,0.9498,-1.7016,-0.0134]},{"id":6170,"tgK":297.15,"scaled":[-0.1975,-0.1797,-0.4396,-0.0915,-0.9421,-0.325,1.9338,-0.3177,5.137,-0.1033,0,0.1332,-0.6171,-1.2788,-0.1909,0.2123,-0.2949,0.0303]},{"id":1614,"tgK":288.15,"scaled":[-0.9911,-1.0031,-1.2152,-0.7963,-0.9421,-0.325,-0.2011,-0.3177,-0.1375,-0.1033,0,-0.495,-0.9235,-0.7924,-0.1909,-0.9659,-1.7016,-1.1513]},{"id":187,"tgK":212.65,"scaled":[-0.8494,-0.7498,-1.2152,-0.7963,0.2463,-0.325,-0.2011,-0.3177,-0.1375,-0.1033,0,-0.7044,-0.9235,-0.306,-0.1909,0.0058,-1.7016,-0.8383]},{"id":1175,"tgK":314.15,"scaled":[-1.3879,-1.3831,-1.2152,-1.1487,-0.9421,-0.325,-0.2011,-0.3177,-0.1375,-0.1033,0,-0.9138,-1.2298,-1.2788,-0.1909,-1.1394,-1.7016,-1.5137]},{"id":2047,"tgK":433.65,"scaled":[-1.3879,-1.2564,-0.8274,-1.5011,-0.9421,-0.325,-0.2011,0.0171,-0.1375,-0.1033,0,-1.3326,-0.9235,-1.2788,-0.1909,-1.1394,0.5565,-1.4025]},{"id":4105,"tgK":566.15,"scaled":[0.8794,0.707,0.9177,0.9657,2.0289,-0.325,-0.2011,-0.3177,-0.1375,-0.1033,0,0.5521,1.2211,1.6395,-0.1909,0.3528,0.6819,0.8007]},{"id":3641,"tgK":613.15,"scaled":[-0.5376,-0.4964,-0.0518,-0.7963,0.2463,-0.325,-0.2011,-0.3177,-0.1375,-0.1033,0,-0.495,-0.3107,-0.306,-0.1909,-0.5084,0.9251,-0.6406]},{"id":1034,"tgK":311.25,"scaled":[-0.3959,-0.4964,-0.4396,-1.5011,-0.9421,-0.325,4.0687,-0.3177,-0.1375,-0.1033,0,-0.2856,-0.6171,-0.306,-0.1909,-1.4788,-0.1126,-0.6564]},{"id":4268,"tgK":412.75,"scaled":[-1.1328,-1.2564,-1.2152,-0.0915,-0.9421,-0.325,-0.2011,-0.3177,-0.1375,-0.1033,0,-0.9138,-0.9235,-0.306,-0.1909,0.8237,-1.7016,-1.2173]},{"id":431,"tgK":545.15,"scaled":[0.8511,1.0236,1.3701,0.2609,-0.3479,-0.325,-0.2011,-0.3177,2.4997,-0.1033,0,0.5521,1.2211,0.1803,-0.1909,-0.7304,1.217,0.8314]},{"id":5411,"tgK":329.15,"scaled":[-0.2542,0.2636,-0.0518,-1.5011,-0.9421,2.9692,-0.2011,-0.3177,-0.1375,-0.1033,0,-0.7044,-0.0044,-1.2788,-0.1909,-1.547,0.4799,-0.0306]},{"id":4245,"tgK":256.15,"scaled":[-0.7927,-1.5098,-1.2152,-1.1487,-0.3479,-0.325,-0.2011,2.3604,-0.1375,3.4411,0,0.3427,-1.2298,-1.2788,-0.1909,3.699,-1.7016,-0.6005]},{"id":2539,"tgK":374.15,"scaled":[-0.736,-0.6231,-0.4396,-1.1487,0.2463,-0.325,-0.2011,-0.3177,-0.1375,-0.1033,0,-0.495,-0.6171,-0.7924,-0.1909,-0.7304,0.3414,-0.8053]},{"id":1839,"tgK":338.15,"scaled":[-1.1895,-1.1298,-0.8274,-0.4439,-0.9421,-0.325,-0.2011,-0.3177,-0.1375,-0.1033,0,-1.1232,-0.9235,-0.7924,-0.1909,0.226,-0.0515,-1.1843]},{"id":4924,"tgK":508.15,"scaled":[-0.6227,-0.4964,-0.4396,-0.4439,-0.9421,-0.325,-0.2011,-0.3177,-0.1375,-0.1033,0,-0.7044,-0.0044,-0.7924,-0.1909,-0.8656,0.1638,-0.69]},{"id":84,"tgK":443.15,"scaled":[0.0292,0.2636,0.336,-0.0915,-0.9421,-0.325,-0.2011,-0.3177,-0.1375,-0.1033,0,-0.0762,-0.0044,0.1803,-0.1909,-1.0233,0.7856,-0.0311]},{"id":1991,"tgK":388.15,"scaled":[-1.0478,-1.0664,-0.8274,-0.4439,-0.9421,-0.325,-0.2011,-0.3177,-0.1375,-0.1033,0,-0.7044,-0.9235,-0.7924,-0.1909,-0.179,-0.3176,-1.1348]},{"id":4442,"tgK":313.15,"scaled":[-0.3676,-0.1797,-0.0518,-0.0915,-0.9421,-0.325,-0.2011,-0.3177,-0.1375,-0.1033,0,-0.495,-0.3107,-0.306,-0.1909,-0.7022,0.6386,-0.3771]},{"id":4517,"tgK":392.15,"scaled":[-0.9061,-0.8764,-0.5689,-0.0915,-0.9421,-0.325,-0.2011,-0.3177,-0.1375,-0.1033,0,-0.9138,-0.6171,-0.306,-0.1909,0.133,0.2847,-0.9207]},{"id":1892,"tgK":388.15,"scaled":[-0.3393,-0.2431,-0.0518,0.6133,-0.9421,-0.325,-0.2011,-0.3177,-0.1375,-0.1033,0,-0.2856,-0.3107,-0.306,-0.1909,0.0467,0.5968,-0.2948]},{"id":3576,"tgK":433.15,"scaled":[0.7094,0.517,0.7238,1.6705,1.4347,-0.325,-0.2011,-0.3177,-0.1375,-0.1033,0,0.7615,0.302,1.6395,-0.1909,0.7569,0.605,0.7264]},{"id":4888,"tgK":437.15,"scaled":[0.8511,0.8336,1.1116,-0.0915,-0.9421,-0.325,-0.2011,1.6909,-0.1375,-0.1033,0,1.1803,0.6084,-0.306,-0.1909,-0.0644,0.9251,0.8828]},{"id":6040,"tgK":479.15,"scaled":[0.9078,0.897,0.336,0.6133,0.2463,-0.325,-0.2011,-0.3177,-0.1375,-0.1033,0,0.7615,0.6084,1.6395,-0.1909,-0.5439,0.0145,0.7101]},{"id":3911,"tgK":547.15,"scaled":[1.9848,2.1637,2.4043,1.6705,2.6231,-0.325,-0.2011,-0.3177,-0.1375,-0.1033,0,0.9709,2.4466,1.6395,-0.1909,0.0804,1.2001,2.1267]},{"id":6912,"tgK":533.15,"scaled":[1.3613,0.6436,0.7238,0.2609,0.2463,-0.325,-0.2011,2.6952,-0.1375,-0.1033,0,2.2273,0.9148,1.1531,-0.1909,0.7166,0.1477,1.1503]},{"id":2662,"tgK":201.65,"scaled":[-1.3879,-1.3831,-1.2152,-0.7963,-0.9421,-0.325,-0.2011,-0.3177,-0.1375,-0.1033,0,-1.1232,-1.2298,-0.7924,-0.1909,0.0058,-1.7016,-1.4478]},{"id":4644,"tgK":293.15,"scaled":[0.8511,0.9603,-0.0518,2.0229,-0.9421,-0.325,1.9338,-0.3177,-0.1375,-0.1033,0,0.9709,-0.3107,0.6667,-0.1909,0.1577,-0.3882,1.0232]},{"id":5536,"tgK":525.35,"scaled":[1.5597,1.1503,1.1116,0.9657,0.2463,-0.325,-0.2011,1.6909,-0.1375,-0.1033,0,2.2273,1.2211,0.6667,-0.1909,0.3689,0.3912,1.4428]},{"id":3664,"tgK":413.15,"scaled":[0.341,0.4536,0.4006,0.9657,1.4347,-0.325,-0.2011,-0.3177,-0.1375,-0.1033,0,-0.2856,0.302,-0.306,-0.1909,0.7072,0.533,0.5453]},{"id":4693,"tgK":429.15,"scaled":[0.7944,1.3403,0.2067,0.2609,1.4347,-0.325,1.9338,-0.3177,-0.1375,-0.1033,0,-0.0762,0.302,-1.2788,-0.1909,-0.0181,-0.0629,1.2211]},{"id":1917,"tgK":347.15,"scaled":[-1.1328,-1.0031,-0.8274,-1.1487,-0.9421,-0.325,-0.2011,-0.3177,-0.1375,-0.1033,0,-0.9138,-0.9235,-0.7924,-0.1909,-1.5075,-0.1693,-1.2171]},{"id":6326,"tgK":458.15,"scaled":[0.4543,0.2636,0.5299,-0.4439,-0.3479,-0.325,-0.2011,1.6909,-0.1375,-0.1033,0,0.9709,0.302,-1.2788,-0.1909,0.3057,0.5968,0.4298]},{"id":6406,"tgK":442.15,"scaled":[2.2399,2.3537,2.275,0.6133,0.2463,-0.325,-0.2011,1.6909,-0.1375,-0.1033,0,2.8555,1.5275,-0.306,-0.1909,-0.2124,0.9251,2.316]},{"id":7179,"tgK":677.15,"scaled":[0.1142,-0.1164,-0.0518,0.2609,0.2463,-0.325,-0.2011,-0.3177,-0.1375,-0.1033,0,0.3427,0.302,1.1531,-0.1909,-0.1692,0.086,-0.1465]},{"id":931,"tgK":332.15,"scaled":[-0.7927,-0.7498,-1.2152,-0.7963,-0.3479,-0.325,-0.2011,-0.3177,-0.1375,-0.1033,0,-0.7044,-0.6171,0.1803,-0.1909,-0.6527,-1.7016,-0.8959]},{"id":6092,"tgK":505.15,"scaled":[-0.1409,-0.0531,-0.4396,-0.4439,-0.9421,-0.325,-0.2011,-0.3177,-0.1375,-0.1033,0,-0.0762,0.6084,-0.7924,-0.1909,-1.2485,-0.3396,-0.3441]},{"id":44,"tgK":453.15,"scaled":[-1.0195,-1.0664,-0.8274,-1.5011,-0.9421,-0.325,-0.2011,-0.3177,-0.1375,-0.1033,0,-0.9138,-0.9235,-0.7924,-0.1909,-2.2846,-0.3609,-1.3324]},{"id":3885,"tgK":575.15,"scaled":[2.2682,2.227,2.275,1.6705,2.0289,-0.325,-0.2011,-0.3177,-0.1375,-0.1033,0,1.5991,2.4466,2.1258,-0.1909,-0.2264,0.9074,2.1185]},{"id":3983,"tgK":509.15,"scaled":[0.2559,0.517,0.9823,0.2609,0.2463,-0.325,-0.2011,-0.3177,-0.1375,-0.1033,0,-0.0762,0.6084,-0.306,-0.1909,-0.3066,1.4558,0.3477]},{"id":138,"tgK":305.15,"scaled":[1.1345,1.3403,1.8872,-0.0915,0.8405,1.3221,-0.2011,-0.3177,2.4997,-0.1033,0,0.3427,1.2211,0.6667,-0.1909,-0.4714,1.4764,1.2599]},{"id":2126,"tgK":493.15,"scaled":[-0.7077,-0.7498,-0.4396,-0.7963,1.4347,-0.325,-0.2011,-0.3177,-0.1375,-0.1033,0,-0.7044,-0.6171,0.1803,-0.1909,0.7515,0.2939,-0.723]},{"id":5145,"tgK":463.65,"scaled":[1.0495,1.1503,1.4994,1.3181,0.2463,1.3221,-0.2011,-0.3177,-0.1375,-0.1033,0,0.5521,1.5275,0.6667,-0.1909,-0.0052,1.1586,1.1714]},{"id":1263,"tgK":330.95,"scaled":[0.3693,0.1369,-0.4396,0.2609,1.4347,-0.325,-0.2011,-0.3177,-0.1375,-0.1033,0,0.1332,-0.3107,0.1803,-0.1909,0.133,-0.6423,0.1665]},{"id":5245,"tgK":624.15,"scaled":[1.0212,1.657,2.275,-1.1487,0.2463,-0.325,-0.2011,-0.3177,-0.1375,-0.1033,0,-0.0762,1.8339,-1.2788,-0.1909,-1.657,2.0112,0.974]},{"id":3193,"tgK":423.15,"scaled":[-0.3676,-0.2431,0.2067,-1.5011,0.2463,1.3221,-0.2011,-0.3177,-0.1375,-0.1033,0,-0.7044,-0.0044,-0.306,-0.1909,-1.0978,1.1586,-0.4426]},{"id":1565,"tgK":426.15,"scaled":[-0.3959,-0.3064,-0.4396,0.6133,-0.9421,-0.325,-0.2011,-0.3177,2.4997,-0.1033,0,-0.2856,-0.6171,-0.306,-0.1909,0.5359,-0.1126,-0.1984]},{"id":4910,"tgK":673.15,"scaled":[0.1709,0.3903,0.7238,0.2609,-0.9421,-0.325,-0.2011,-0.3177,-0.1375,-0.1033,0,-0.0762,0.6084,0.1803,-0.1909,-0.8145,1.1973,0.1336]},{"id":5817,"tgK":435.15,"scaled":[0.0008,0.2636,0.7238,-1.1487,0.8405,-0.325,-0.2011,-0.3177,-0.1375,-0.1033,0,-0.495,0.302,-0.306,-0.1909,-1.0047,1.4531,-0.0557]},{"id":3908,"tgK":547.15,"scaled":[-0.0842,-0.1164,-0.0518,-1.1487,2.6231,-0.325,-0.2011,-0.3177,-0.1375,-0.1033,0,-0.0762,-0.3107,-0.306,9.6236,0.0586,0.2786,-0.1793]},{"id":2502,"tgK":345.15,"scaled":[-0.6794,-0.4331,-0.2457,-1.5011,2.0289,-0.325,-0.2011,-0.3177,-0.1375,-0.1033,0,-0.9138,-0.3107,-1.2788,-0.1909,0.1879,0.7361,-0.5499]},{"id":607,"tgK":565.15,"scaled":[0.8511,0.6436,0.9177,0.2609,3.2173,-0.325,-0.2011,-0.3177,-0.1375,-0.1033,0,0.5521,1.2211,1.1531,-0.1909,0.3797,0.7062,0.7349]},{"id":4848,"tgK":440.15,"scaled":[-0.6794,-0.6864,-0.4396,-0.4439,-0.9421,-0.325,-0.2011,-0.3177,5.137,-0.1033,0,-0.495,-0.6171,-0.306,-0.1909,0.1879,0.2486,-0.5465]},{"id":1402,"tgK":417.15,"scaled":[-0.1975,-0.4331,-0.4396,-0.0915,0.8405,1.3221,-0.2011,-0.3177,-0.1375,-0.1033,0,0.1332,-0.6171,0.6667,-0.1909,0.569,-0.2949,-0.2699]},{"id":3095,"tgK":300.65,"scaled":[0.0859,0.4536,-0.4396,0.9657,-0.3479,-0.325,-0.2011,-0.3177,-0.1375,-0.1033,0,-0.0762,-0.6171,0.6667,-0.1909,0.167,-0.4931,0.3723]},{"id":6862,"tgK":530.15,"scaled":[0.9928,0.5803,0.7238,-0.0915,0.2463,2.9692,-0.2011,1.6909,-0.1375,-0.1033,0,1.3897,0.9148,0.6667,-0.1909,0.6729,0.3811,1.0643]},{"id":2009,"tgK":375.15,"scaled":[-1.3029,-1.2564,-0.8274,-1.5011,-0.9421,-0.325,-0.2011,-0.3177,-0.1375,3.4411,0,-1.1232,-0.9235,-1.2788,-0.1909,-1.2956,0.2486,-1.1518]},{"id":118,"tgK":318.15,"scaled":[0.6527,0.2003,0.7238,0.2609,0.8405,-0.325,-0.2011,-0.3177,-0.1375,17.6186,0,0.5521,0.302,0.6667,-0.1909,0.8237,0.6557,1.8023]},{"id":4768,"tgK":581.15,"scaled":[0.4543,0.897,1.4994,-1.1487,0.2463,-0.325,-0.2011,-0.3177,-0.1375,-0.1033,0,-0.2856,1.2211,-1.2788,-0.1909,-1.5075,1.8737,0.3809]},{"id":6252,"tgK":400.15,"scaled":[0.1709,0.3903,0.336,0.6133,0.2463,-0.325,-0.2011,-0.3177,-0.1375,-0.1033,0,0.1332,-0.0044,-0.306,-0.1909,0.0677,0.6175,0.3147]},{"id":4466,"tgK":259.95,"scaled":[0.1142,0.3903,-0.0518,0.6133,0.2463,-0.325,-0.2011,-0.3177,-0.1375,-0.1033,0,-0.495,-0.3107,0.6667,-0.1909,0.133,0.086,0.3147]},{"id":5596,"tgK":413.15,"scaled":[0.6527,0.9603,0.336,0.6133,-0.9421,-0.325,-0.2011,-0.3177,10.4115,-0.1033,0,0.7615,-0.0044,-0.306,-0.1909,0.1064,0.1843,1.2278]},{"id":4839,"tgK":587.15,"scaled":[0.3976,0.2636,0.5945,0.6133,0.2463,-0.325,-0.2011,-0.3177,-0.1375,-0.1033,0,0.3427,0.6084,0.6667,-0.1909,-0.1618,0.7401,0.2159]},{"id":813,"tgK":334.55,"scaled":[-1.1895,-1.1931,-1.2152,-1.5011,-0.9421,-0.325,-0.2011,-0.3177,-0.1375,-0.1033,0,-1.1232,-0.6171,-0.7924,-0.1909,-2.2846,-1.7016,-1.4312]},{"id":2428,"tgK":283.15,"scaled":[-0.4526,-0.2431,-0.8274,1.3181,-0.9421,-0.325,-0.2011,-0.3177,-0.1375,-0.1033,0,-0.495,-0.9235,-0.306,-0.1909,1.0629,-0.8766,-0.1631]},{"id":2220,"tgK":266.15,"scaled":[-0.5093,-0.2431,-1.2152,0.6133,0.2463,-0.325,-0.2011,-0.3177,-0.1375,-0.1033,0,-0.7044,-1.2298,0.6667,-0.1909,1.1967,-1.7016,-0.1795]},{"id":2775,"tgK":465.15,"scaled":[-0.7077,-0.6864,-0.8274,-0.7963,0.2463,-0.325,-0.2011,-0.3177,-0.1375,-0.1033,0,-0.2856,-0.9235,-0.306,-0.1909,-0.2606,-0.7039,-0.7888]},{"id":719,"tgK":357.15,"scaled":[-0.9911,-1.1931,-1.2152,-0.0915,-0.9421,-0.325,-0.2011,-0.3177,-0.1375,-0.1033,0,-0.2856,-1.2298,-0.306,-0.1909,0.3528,-1.7016,-1.1679]},{"id":2732,"tgK":315.15,"scaled":[0.1426,0.4536,-0.0518,0.9657,-0.3479,-0.325,-0.2011,-0.3177,-0.1375,-0.1033,0,-0.0762,-0.3107,0.6667,-0.1909,0.0999,0.0615,0.3723]},{"id":32,"tgK":383.15,"scaled":[-0.8778,-0.8764,-0.8274,-1.5011,-0.9421,-0.325,1.9338,-0.3177,-0.1375,-0.1033,0,-0.7044,-0.9235,-0.7924,-0.1909,-1.6966,-0.5421,-1.0685]},{"id":2882,"tgK":411.15,"scaled":[0.0008,0.0103,0.2067,0.2609,0.8405,-0.325,-0.2011,-0.3177,-0.1375,-0.1033,0,-0.2856,-0.0044,0.1803,2.2627,0.2752,0.6118,0.01]},{"id":1778,"tgK":424.15,"scaled":[-0.9628,-1.2564,-0.892,-0.7963,0.8405,-0.325,-0.2011,-0.3177,-0.1375,-0.1033,0,-0.9138,-0.9235,-0.7924,-0.1909,0.9152,-0.6501,-1.176]},{"id":6641,"tgK":451.15,"scaled":[1.2196,1.3403,1.4994,1.3181,0.2463,-0.325,-0.2011,-0.3177,-0.1375,-0.1033,0,0.9709,1.5275,0.6667,-0.1909,-0.3244,1.004,1.1878]},{"id":5823,"tgK":374.15,"scaled":[0.2559,0.327,0.336,0.6133,1.4347,-0.325,-0.2011,-0.3177,-0.1375,-0.1033,0,-0.2856,-0.0044,0.6667,-0.1909,0.5412,0.5272,0.3806]},{"id":5031,"tgK":439.15,"scaled":[-0.3676,-0.2431,0.2067,0.2609,-0.9421,-0.325,-0.2011,-0.3177,-0.1375,-0.1033,0,-0.495,-0.0044,-0.306,-0.1909,-0.3066,1.1586,-0.3607]},{"id":7052,"tgK":566.15,"scaled":[2.5516,1.1503,1.3701,0.2609,0.2463,-0.325,-0.2011,5.7081,-0.1375,-0.1033,0,4.3214,1.2211,1.1531,-0.1909,1.1582,0.1087,2.2494]},{"id":5612,"tgK":468.15,"scaled":[0.2276,0.2003,-0.0518,0.6133,0.2463,-0.325,-0.2011,-0.3177,-0.1375,-0.1033,0,0.1332,0.302,1.1531,-0.1909,0.0058,-0.008,0.1665]},{"id":2061,"tgK":343.15,"scaled":[-0.5943,-0.2431,-0.8274,-0.7963,-0.3479,-0.325,-0.2011,-0.3177,-0.1375,-0.1033,0,-0.7044,-0.6171,-0.306,-0.1909,-0.8958,-0.7888,-0.5005]},{"id":3605,"tgK":418.15,"scaled":[0.426,0.5803,0.4006,1.3181,1.4347,-0.325,-0.2011,-0.3177,-0.1375,-0.1033,0,-0.2856,0.302,-0.306,-0.1909,0.8612,0.4522,0.71]},{"id":2190,"tgK":266.45,"scaled":[-1.2462,-1.2564,-1.2152,-1.5011,-0.3479,-0.325,-0.2011,-0.3177,-0.1375,-0.1033,0,-1.1232,-0.9235,-1.2788,-0.1909,-1.378,-1.7016,-1.423]},{"id":3597,"tgK":540.65,"scaled":[-0.3109,-0.4331,0.0128,-0.7963,1.4347,-0.325,-0.2011,-0.3177,-0.1375,-0.1033,0,-0.495,-0.0044,-0.306,-0.1909,0.0058,0.6819,-0.4758]},{"id":5585,"tgK":334.15,"scaled":[1.1629,1.5303,0.7238,0.2609,0.8405,-0.325,-0.2011,1.0214,-0.1375,-0.1033,0,0.7615,0.302,0.1803,2.2627,0.1108,0.2664,1.5089]},{"id":1513,"tgK":198.15,"scaled":[0.0292,0.327,-0.6335,1.6705,2.0289,-0.325,-0.2011,-0.3177,-0.1375,-0.1033,0,-0.2856,-0.6171,-1.2788,-0.1909,2.1302,-0.7689,0.6358]},{"id":657,"tgK":463.15,"scaled":[0.5677,0.8336,1.3055,-0.0915,0.2463,-0.325,-0.2011,-0.3177,-0.1375,-0.1033,0,0.1332,0.9148,-0.306,-0.1909,-0.8011,1.4674,0.529]},{"id":5021,"tgK":454.15,"scaled":[-0.5943,-0.4964,-0.0518,-0.0915,-0.9421,1.3221,-0.2011,-0.3177,-0.1375,-0.1033,0,-0.7044,-0.3107,-0.306,-0.1909,0.0301,1.0369,-0.4923]},{"id":7132,"tgK":372.075,"scaled":[-0.9061,-0.7498,-0.4396,-1.1487,-0.9421,-0.325,-0.2011,-0.3177,-0.1375,-0.1033,0,-0.7044,-0.6171,-0.7924,-0.1909,-1.6802,0.6819,-1.0194]},{"id":3466,"tgK":373.15,"scaled":[-0.5943,-0.2431,-0.4396,-0.7963,0.2463,1.3221,-0.2011,-0.3177,-0.1375,-0.1033,0,-0.9138,-0.6171,-0.306,-0.1909,0.0301,0.1241,-0.3109]},{"id":481,"tgK":418.15,"scaled":[0.6811,1.0236,1.1116,0.6133,-0.9421,-0.325,-0.2011,-0.3177,-0.1375,-0.1033,0,0.7615,0.6084,-0.306,-0.1909,-0.8656,1.0965,0.6937]},{"id":5287,"tgK":355.15,"scaled":[-1.1328,-1.0664,-0.5042,-0.7963,-0.3479,-0.325,-0.2011,-0.3177,-0.1375,-0.1033,0,-1.1232,-0.6171,-1.2788,-0.1909,0.0467,1.1076,-1.143]},{"id":3321,"tgK":364.15,"scaled":[0.0575,0.0103,-1.2152,1.3181,0.2463,-0.325,-0.2011,-0.3177,-0.1375,-0.1033,0,0.3427,-0.6171,0.6667,-0.1909,0.8237,-1.7016,0.1499]},{"id":201,"tgK":473.15,"scaled":[-0.5093,-0.4964,-0.8274,-0.7963,0.2463,-0.325,-0.2011,-0.3177,-0.1375,-0.1033,0,-0.0762,-0.6171,-0.306,-0.1909,-0.5439,-0.8435,-0.6406]},{"id":2946,"tgK":340.15,"scaled":[-0.8494,-0.7498,-0.8274,-0.0915,0.2463,-0.325,-0.2011,-0.3177,-0.1375,-0.1033,0,-0.9138,-0.9235,-0.306,-0.1909,1.1509,-0.5726,-0.7066]},{"id":4499,"tgK":625.65,"scaled":[-0.7927,-0.8131,-1.2152,-0.0915,-0.3479,-0.325,-0.2011,-0.3177,-0.1375,-0.1033,0,-0.9138,-0.6171,0.6667,-0.1909,0.4352,-1.7016,-0.8137]},{"id":659,"tgK":432.15,"scaled":[0.0292,0.2636,0.7238,-0.0915,-0.9421,-0.325,-0.2011,-0.3177,-0.1375,-0.1033,0,-0.0762,0.302,-0.306,-0.1909,-1.0233,1.4074,-0.0311]},{"id":977,"tgK":447.15,"scaled":[-0.7644,-0.4964,-0.8274,-0.7963,-0.9421,-0.325,-0.2011,-0.3177,-0.1375,-0.1033,0,-1.1232,-0.0044,-0.7924,-0.1909,-1.2232,-0.6552,-0.7559]},{"id":1921,"tgK":311.15,"scaled":[-0.9344,-0.7498,-0.8274,-1.1487,-0.3479,-0.325,-0.2011,-0.3177,-0.1375,-0.1033,0,-0.9138,-0.6171,-0.7924,-0.1909,-1.0413,-0.4758,-0.9618]},{"id":1347,"tgK":318.15,"scaled":[-0.4243,-0.2431,-0.4396,0.2609,-0.9421,-0.325,-0.2011,-0.3177,-0.1375,-0.1033,0,-0.2856,-0.6171,-0.306,-0.1909,-0.2319,-0.0826,-0.3607]},{"id":3486,"tgK":443.15,"scaled":[-0.9061,-0.9398,-0.892,-0.7963,2.0289,-0.325,-0.2011,-0.3177,-0.1375,-0.1033,0,-0.9138,-0.9235,-0.306,-0.1909,1.9462,-0.7085,-0.8136]},{"id":4607,"tgK":273.15,"scaled":[-0.1692,-0.3697,-0.0518,-0.7963,-0.9421,-0.325,6.2036,-0.3177,-0.1375,-0.1033,0,-0.0762,-0.3107,-1.2788,-0.1909,-0.5299,0.3744,-0.3102]},{"id":1541,"tgK":316.15,"scaled":[-0.9911,-1.0664,-1.2152,-0.0915,-0.9421,-0.325,-0.2011,-0.3177,5.137,-0.1033,0,-0.7044,-1.2298,-0.306,-0.1909,1.6715,-1.7016,-0.7772]},{"id":3052,"tgK":613.15,"scaled":[-0.0842,-0.1797,-0.4396,-0.0915,0.2463,-0.325,-0.2011,-0.3177,-0.1375,-0.1033,0,-0.0762,0.302,0.6667,-0.1909,-0.2761,-0.3815,-0.2618]},{"id":3879,"tgK":537.15,"scaled":[0.6244,0.897,0.7238,-0.0915,0.2463,-0.325,-0.2011,-0.3177,-0.1375,-0.1033,0,0.3427,1.2211,-0.306,-0.1909,-0.8341,0.6819,0.5784]},{"id":3073,"tgK":351.15,"scaled":[-0.2259,-0.2431,-0.4396,0.9657,-0.3479,-0.325,-0.2011,-0.3177,-0.1375,-0.1033,0,-0.0762,-0.6171,0.6667,-0.1909,0.6165,-0.2715,-0.1713]},{"id":2945,"tgK":455.15,"scaled":[0.9928,0.707,0.336,0.6133,0.2463,-0.325,-0.2011,1.6909,-0.1375,-0.1033,0,1.3897,0.6084,0.6667,-0.1909,0.6729,-0.0355,1.031]},{"id":6362,"tgK":497.15,"scaled":[0.6244,0.4536,0.8531,-0.7963,1.4347,-0.325,-0.2011,1.6909,-0.1375,-0.1033,0,0.7615,0.6084,-1.2788,-0.1909,0.6165,0.8408,0.6852]},{"id":4974,"tgK":530.15,"scaled":[2.0131,2.417,1.8872,1.3181,0.2463,-0.325,-0.2011,-0.3177,-0.1375,-0.1033,0,1.1803,2.1402,0.6667,-0.1909,-0.7193,0.7677,2.028]},{"id":7238,"tgK":199,"scaled":[-1.5296,-1.5098,-1.2152,-1.5011,-0.9421,-0.325,-0.2011,-0.3177,-0.1375,-0.1033,0,-1.1232,-1.2298,-1.2788,-0.1909,-2.2846,-1.7016,-1.6783]},{"id":3776,"tgK":560.15,"scaled":[-0.0842,-0.1797,-0.0518,-0.0915,0.8405,-0.325,-0.2011,-0.3177,-0.1375,-0.1033,0,-0.0762,-0.0044,1.1531,-0.1909,0.0586,0.2786,-0.2041]},{"id":6610,"tgK":503.15,"scaled":[0.0859,0.2636,0.336,-0.0915,-0.9421,1.3221,-0.2011,-0.3177,-0.1375,-0.1033,0,0.1332,0.302,-0.306,-0.1909,-0.7523,0.7155,0.1008]},{"id":4926,"tgK":448.15,"scaled":[-0.7077,-0.5597,-0.4396,-0.4439,-0.9421,-0.325,-0.2011,-0.3177,-0.1375,-0.1033,0,-0.7044,-0.3107,-0.7924,-0.1909,-0.7666,0.2939,-0.7395]},{"id":2171,"tgK":395.15,"scaled":[-0.5093,-0.1797,-0.4396,-0.7963,0.2463,-0.325,-0.2011,-0.3177,-0.1375,-0.1033,0,-0.9138,-0.3107,-0.306,-0.1909,-0.5439,0.0145,-0.3935]},{"id":950,"tgK":393.15,"scaled":[-0.6794,-0.9398,-1.2152,-1.5011,-0.3479,-0.325,4.0687,-0.3177,-0.1375,-0.1033,0,-0.2856,-0.9235,-0.7924,2.2627,-0.8011,-1.7016,-0.9447]},{"id":4319,"tgK":320.15,"scaled":[-0.1409,0.0103,-0.4396,0.6133,-0.3479,-0.325,-0.2011,-0.3177,-0.1375,-0.1033,0,-0.2856,-0.3107,0.6667,-0.1909,0.133,-0.3396,-0.0395]},{"id":4058,"tgK":413.15,"scaled":[0.426,0.5803,0.4006,1.3181,1.4347,-0.325,-0.2011,-0.3177,-0.1375,-0.1033,0,-0.2856,0.302,-0.306,-0.1909,0.8612,0.4522,0.71]},{"id":5118,"tgK":647.15,"scaled":[1.4179,1.277,1.8872,0.9657,1.4347,1.3221,-0.2011,-0.3177,-0.1375,-0.1033,0,0.5521,2.4466,0.6667,-0.1909,-0.0719,1.2071,1.3197]},{"id":342,"tgK":369.15,"scaled":[-0.6227,-0.5597,-0.4396,0.2609,-0.9421,-0.325,-0.2011,-0.3177,-0.1375,-0.1033,0,-0.495,-0.6171,-0.306,-0.1909,0.0804,0.1638,-0.6078]},{"id":4389,"tgK":402.65,"scaled":[-0.566,-0.0531,0.0775,-0.7963,-0.9421,-0.325,-0.2011,-0.3177,-0.1375,-0.1033,0,-1.1232,-0.0044,-1.2788,-0.1909,-1.378,1.2778,-0.4099]},{"id":2367,"tgK":359.15,"scaled":[-0.1692,0.1369,-0.3103,-0.0915,1.4347,-0.325,-0.2011,-0.3177,-0.1375,-0.1033,0,-0.7044,-0.0044,-0.306,-0.1909,0.5229,-0.087,0.1007]},{"id":1960,"tgK":221.15,"scaled":[-1.0195,-0.4964,-0.8274,-1.5011,-0.9421,-0.325,-0.2011,-0.3177,-0.1375,-0.1033,0,-1.1232,-0.9235,-1.2788,-0.1909,-2.2846,-0.3609,-0.8876]},{"id":6550,"tgK":430.15,"scaled":[-0.2826,-0.3697,-0.0518,-0.0915,0.2463,1.3221,-0.2011,-0.3177,-0.1375,-0.1033,0,-0.2856,-0.0044,0.1803,-0.1909,0.3414,0.5175,-0.2781]},{"id":1588,"tgK":345.65,"scaled":[-1.0478,-1.1931,-1.2152,-1.1487,0.2463,-0.325,-0.2011,-0.3177,-0.1375,-0.1033,0,-0.9138,-0.9235,-0.7924,-0.1909,-0.179,-1.7016,-1.2501]},{"id":1162,"tgK":331.15,"scaled":[0.2559,-0.1164,-0.0518,1.3181,0.2463,2.9692,-0.2011,-0.3177,-0.1375,-0.1033,0,0.7615,-0.3107,0.6667,-0.1909,1.1063,-0.03,0.3149]},{"id":4070,"tgK":558.55,"scaled":[1.3046,1.467,1.6287,0.6133,1.4347,-0.325,-0.2011,-0.3177,-0.1375,-0.1033,0,0.5521,1.8339,1.6395,-0.1909,-0.376,1.0583,1.2702]},{"id":2486,"tgK":298.65,"scaled":[-0.9911,-0.6864,-1.2152,-0.7963,0.2463,-0.325,-0.2011,-0.3177,-0.1375,-0.1033,0,-1.1232,-1.2298,-0.306,-0.1909,0.3528,-1.7016,-0.7888]},{"id":5460,"tgK":623.15,"scaled":[0.511,-0.1797,0.2067,0.6133,0.2463,-0.325,-0.2011,1.6909,-0.1375,-0.1033,0,1.1803,0.302,0.6667,-0.1909,1.2575,0.1276,0.3391]},{"id":6790,"tgK":573.15,"scaled":[0.511,-0.1164,-0.0518,0.2609,0.2463,-0.325,-0.2011,2.0257,-0.1375,-0.1033,0,1.1803,0.302,0.6667,-0.1909,1.2575,-0.205,0.4008]},{"id":2147,"tgK":183.15,"scaled":[-0.5093,-1.0031,-1.2152,-0.0915,-0.9421,-0.325,6.2036,-0.3177,-0.1375,-0.1033,0,0.1332,-1.2298,-1.2788,-0.1909,0.7616,-1.7016,-0.6728]},{"id":1827,"tgK":359.65,"scaled":[-1.1328,-1.1298,-0.8274,-0.4439,-0.9421,-0.325,-0.2011,-0.3177,-0.1375,-0.1033,0,-0.9138,-0.9235,-0.7924,-0.1909,0.0467,-0.1693,-1.1843]},{"id":7036,"tgK":673.15,"scaled":[1.1629,0.897,1.4994,0.6133,1.4347,2.9692,-0.2011,-0.3177,-0.1375,-0.1033,0,0.3427,1.8339,0.6667,-0.1909,0.1108,1.0537,1.0893]},{"id":4465,"tgK":246.15,"scaled":[-1.4446,-1.4464,-1.2152,-0.4439,-0.9421,-0.325,-0.2011,-0.3177,-0.1375,-0.1033,0,-1.3326,-1.2298,-0.7924,-0.1909,1.5551,-1.7016,-1.4314]},{"id":6627,"tgK":490.15,"scaled":[0.9078,1.0236,1.1116,0.6133,0.2463,-0.325,-0.2011,-0.3177,-0.1375,-0.1033,0,0.7615,1.2211,0.6667,-0.1909,-0.5439,0.8726,0.809]},{"id":1888,"tgK":337.15,"scaled":[-0.4526,0.0736,-0.4396,-0.4439,-0.9421,-0.325,-0.2011,-0.3177,-0.1375,-0.1033,0,-0.7044,-0.6171,-0.7924,-0.1909,-1.0293,-0.0515,-0.2452]},{"id":5687,"tgK":577.15,"scaled":[0.9078,-0.1164,0.2067,-0.0915,0.2463,-0.325,-0.2011,3.6995,-0.1375,-0.1033,0,2.0179,0.302,0.6667,-0.1909,1.6319,-0.1285,0.7259]},{"id":4063,"tgK":521.15,"scaled":[1.503,1.3403,1.4994,0.9657,1.4347,-0.325,-0.2011,-0.3177,-0.1375,-0.1033,0,1.1803,1.8339,2.1258,-0.1909,-0.3066,0.7804,1.2372]},{"id":4938,"tgK":513.15,"scaled":[1.1629,1.5937,1.1116,0.6133,0.2463,-0.325,-0.2011,-0.3177,-0.1375,-0.1033,0,0.5521,1.5275,0.6667,-0.1909,-0.6877,0.6601,1.2538]},{"id":2645,"tgK":208.35,"scaled":[-1.2462,-1.3198,-1.2152,-1.5011,-0.3479,-0.325,1.9338,-0.3177,-0.1375,-0.1033,0,-0.9138,-1.2298,-1.2788,-0.1909,-0.4714,-1.7016,-1.3568]},{"id":949,"tgK":320.15,"scaled":[-0.3393,-0.8131,-1.2152,-0.7963,-0.3479,-0.325,6.2036,-0.3177,-0.1375,-0.1033,0,0.1332,-0.9235,-0.7924,2.2627,0.0467,-1.7016,-0.5986]},{"id":5712,"tgK":439.15,"scaled":[1.3046,1.2136,1.1116,1.3181,0.2463,-0.325,-0.2011,-0.3177,-0.1375,-0.1033,0,1.3897,1.2211,1.6395,-0.1909,-0.376,0.5565,1.0889]},{"id":4472,"tgK":240.15,"scaled":[-1.3596,-1.3831,-1.2152,-0.4439,-0.9421,-0.325,-0.2011,-0.3177,-0.1375,-0.1033,0,-1.1232,-1.2298,-0.7924,-0.1909,0.9792,-1.7016,-1.382]},{"id":143,"tgK":468.15,"scaled":[0.5677,1.0236,1.4994,-0.7963,0.2463,-0.325,-0.2011,-0.3177,-0.1375,-0.1033,0,-0.0762,0.9148,0.1803,-0.1909,-1.2956,1.7112,0.5456]},{"id":843,"tgK":381.15,"scaled":[-1.2179,-1.3831,-1.2152,-0.7963,-0.9421,1.3221,-0.2011,-0.3177,-0.1375,-0.1033,0,-0.9138,-0.9235,-0.306,-0.1909,0.3264,-1.7016,-1.3159]},{"id":3166,"tgK":390.15,"scaled":[-1.2745,-1.2564,-0.8274,-0.7963,-0.9421,-0.325,-0.2011,-0.3177,-0.1375,-0.1033,0,-1.1232,-0.9235,-0.7924,-0.1909,-0.3926,0.1638,-1.349]},{"id":4156,"tgK":344.15,"scaled":[0.0859,0.0736,-0.0518,2.0229,-0.9421,-0.325,-0.2011,-0.3177,-0.1375,-0.1033,0,0.1332,-0.3107,0.6667,-0.1909,0.78,0.1112,0.2157]},{"id":2155,"tgK":248.15,"scaled":[0.2559,-0.7498,-1.2152,-1.1487,-0.9421,-0.325,4.0687,4.369,-0.1375,-0.1033,0,1.8085,-1.2298,-1.2788,-0.1909,2.5192,-1.7016,0.3064]},{"id":2730,"tgK":327.65,"scaled":[0.0292,0.2003,-0.0518,0.9657,-0.3479,-0.325,-0.2011,-0.3177,-0.1375,-0.1033,0,-0.0762,-0.3107,0.6667,-0.1909,0.2381,0.1638,0.1747]},{"id":1273,"tgK":323.15,"scaled":[-0.1692,0.0103,-0.4396,0.9657,-0.9421,-0.325,-0.2011,-0.3177,-0.1375,-0.1033,0,-0.0762,-0.6171,0.1803,-0.1909,0.172,-0.3176,-0.0313]},{"id":7060,"tgK":607.15,"scaled":[1.4179,0.897,1.3701,0.2609,0.2463,-0.325,-0.2011,1.6909,-0.1375,-0.1033,0,1.8085,1.2211,1.1531,-0.1909,0.1125,0.7223,1.1134]},{"id":6216,"tgK":384.15,"scaled":[0.4543,0.6436,0.336,1.3181,0.2463,-0.325,-0.2011,-0.3177,-0.1375,-0.1033,0,0.5521,-0.0044,-0.306,-0.1909,0.3057,0.3414,0.6441]},{"id":743,"tgK":374.15,"scaled":[-0.481,-1.3198,-1.2152,-1.5011,-0.9421,-0.325,-0.2011,3.6995,-0.1375,-0.1033,0,0.9709,-0.9235,-1.2788,-0.1909,2.835,-1.7016,-0.5918]},{"id":2075,"tgK":492.15,"scaled":[-0.8494,-1.0031,-1.2152,-0.0915,-0.9421,-0.325,-0.2011,-0.3177,-0.1375,-0.1033,0,-0.2856,-0.9235,-0.306,-0.1909,0.0058,-1.7016,-1.0196]},{"id":3661,"tgK":531.15,"scaled":[1.7864,1.277,1.3055,0.6133,4.4057,-0.325,-0.2011,-0.3177,-0.1375,-0.1033,0,0.9709,1.5275,1.6395,-0.1909,0.2068,0.4272,1.4102]},{"id":6560,"tgK":437.15,"scaled":[0.1992,0.4536,1.047,0.2609,-0.3479,-0.325,-0.2011,-0.3177,-0.1375,-0.1033,0,-0.0762,0.6084,-0.7924,-0.1909,-0.5439,1.6353,0.2407]},{"id":7349,"tgK":421,"scaled":[-0.6794,-0.4964,-0.4396,-0.4439,-0.9421,-0.325,-0.2011,-0.3177,-0.1375,-0.1033,0,-0.495,-0.6171,-0.7924,-0.1909,-0.8011,0.2486,-0.69]},{"id":4966,"tgK":518.15,"scaled":[0.6244,0.517,0.7238,0.9657,0.8405,-0.325,-0.2011,-0.3177,-0.1375,-0.1033,0,0.3427,0.9148,1.1531,2.2627,0.133,0.6819,0.5371]},{"id":729,"tgK":474.15,"scaled":[-0.9628,-1.0031,-1.2152,-0.0915,-0.9421,-0.325,-0.2011,-0.3177,-0.1375,-0.1033,0,-0.9138,-0.6171,-0.306,-0.1909,0.2752,-1.7016,-1.0196]},{"id":6236,"tgK":309.15,"scaled":[-0.7644,-0.4331,-0.4396,-0.7963,-0.9421,-0.325,-0.2011,-0.3177,-0.1375,-0.1033,0,-0.7044,-0.6171,-1.2788,-0.1909,-1.2232,0.3912,-0.7065]},{"id":7008,"tgK":638.15,"scaled":[-0.2542,0.0103,0.5945,-1.5011,1.4347,-0.325,-0.2011,-0.3177,-0.1375,-0.1033,0,-0.9138,0.6084,-1.2788,-0.1909,-0.8095,1.6919,-0.2616]},{"id":6562,"tgK":411.15,"scaled":[-0.0842,0.0736,0.6592,0.2609,-0.3479,1.3221,-0.2011,-0.3177,-0.1375,-0.1033,0,-0.2856,0.302,-0.7924,-0.1909,0.0586,1.4887,0.0761]},{"id":6171,"tgK":373.75,"scaled":[-0.2542,-0.0531,-0.0518,-0.0915,-0.9421,-0.325,-0.2011,-0.3177,-0.1375,-0.1033,0,-0.2856,-0.3107,-0.306,-0.1909,-0.8095,0.4799,-0.2782]},{"id":1862,"tgK":401.15,"scaled":[-1.1612,-1.2564,-0.8274,-0.7963,-0.9421,1.3221,-0.2011,-0.3177,-0.1375,-0.1033,0,-0.9138,-0.9235,-0.306,-0.1909,0.133,-0.1126,-1.217]},{"id":1984,"tgK":401.15,"scaled":[-1.1895,-1.1298,-0.8274,-1.5011,-0.9421,-0.325,-0.2011,-0.3177,5.137,-0.1033,0,-0.9138,-0.9235,-1.2788,-0.1909,-0.6109,-0.0515,-1.09]},{"id":3782,"tgK":575.15,"scaled":[0.3976,0.517,0.9177,-0.0915,2.0289,1.3221,-0.2011,-0.3177,-0.1375,-0.1033,0,0.1332,0.6084,-0.306,-0.1909,0.3689,1.1761,0.5868]},{"id":829,"tgK":551.15,"scaled":[0.6527,0.0736,-0.4396,-0.0915,0.2463,-0.325,-0.2011,1.6909,-0.1375,-0.1033,0,1.5991,0.302,0.6667,-0.1909,0.5846,-0.7587,0.4051]},{"id":6602,"tgK":436.15,"scaled":[0.0859,0.0736,0.336,0.6133,-0.9421,1.3221,-0.2011,-0.3177,-0.1375,-0.1033,0,0.3427,-0.0044,0.1803,-0.1909,-0.1394,0.7155,0.0842]},{"id":2447,"tgK":313.15,"scaled":[-0.8494,-0.3697,-1.2152,-0.7963,0.2463,-0.325,-0.2011,-0.3177,-0.1375,-0.1033,0,-1.1232,-1.2298,-0.306,-0.1909,0.0058,-1.7016,-0.5417]},{"id":1949,"tgK":323.15,"scaled":[-0.9628,-0.8131,-0.8274,-0.7963,-0.3479,-0.325,-0.2011,-0.3177,-0.1375,-0.1033,0,-0.9138,-0.6171,-1.2788,-0.1909,-0.3648,-0.4397,-0.9453]},{"id":4444,"tgK":333.15,"scaled":[-0.566,-0.4331,-0.4396,-0.0915,-0.9421,-0.325,-0.2011,-0.3177,-0.1375,-0.1033,0,-0.7044,-0.6171,0.1803,-0.1909,-0.4714,0.086,-0.5748]},{"id":5119,"tgK":533.15,"scaled":[0.9645,0.7703,1.1116,1.6705,0.2463,1.3221,-0.2011,-0.3177,-0.1375,-0.1033,0,0.7615,1.2211,1.6395,-0.1909,0.2752,0.8221,0.9407]},{"id":5135,"tgK":491.15,"scaled":[0.7094,0.4536,0.7238,0.6133,0.2463,1.3221,-0.2011,0.6866,-0.1375,-0.1033,0,0.7615,0.9148,0.6667,-0.1909,0.5229,0.605,0.7307]},{"id":189,"tgK":329.15,"scaled":[-0.1975,0.1369,0.2067,-0.0915,-0.3479,-0.325,-0.2011,-0.3177,-0.1375,-0.1033,0,-0.495,-0.0044,-0.306,-0.1909,-0.5011,0.8773,-0.0723]},{"id":6517,"tgK":527.15,"scaled":[2.5516,2.9237,1.8872,1.3181,0.2463,-0.325,-0.2011,-0.3177,-0.1375,-0.1033,0,1.8085,2.753,0.6667,-0.1909,-0.9075,0.4707,2.4234]},{"id":4044,"tgK":514.15,"scaled":[1.6447,1.277,1.4994,1.6705,1.4347,1.3221,-0.2011,-0.3177,-0.1375,-0.1033,0,1.5991,1.5275,3.0986,-0.1909,0.133,0.6819,1.4514]},{"id":6685,"tgK":406.15,"scaled":[-0.3959,-0.2431,0.336,-1.1487,-0.9421,6.2633,-0.2011,-0.3177,-0.1375,-0.1033,0,-0.495,-0.0044,-0.7924,-0.1909,-0.2699,1.4764,-0.0963]},{"id":4342,"tgK":331.15,"scaled":[-0.1975,-0.1164,-0.4396,0.6133,-0.3479,-0.325,-0.2011,-0.3177,-0.1375,-0.1033,0,-0.2856,-0.3107,0.6667,-0.1909,0.2123,-0.2949,-0.1383]},{"id":357,"tgK":529.65,"scaled":[1.8147,1.657,1.8872,2.0229,0.2463,1.3221,-0.2011,-0.3177,-0.1375,-0.1033,0,1.5991,1.8339,2.6122,-0.1909,-0.1417,0.8986,1.6985]},{"id":92,"tgK":306.15,"scaled":[-0.1409,-0.0531,-0.4396,1.3181,-0.9421,-0.325,-0.2011,-0.3177,-0.1375,-0.1033,0,-0.0762,-0.6171,0.6667,-0.1909,0.4784,-0.3396,-0.0149]},{"id":5310,"tgK":511.15,"scaled":[0.8794,0.897,0.7238,0.9657,0.2463,-0.325,-0.2011,-0.3177,-0.1375,-0.1033,0,0.9709,0.9148,0.6667,-0.1909,-0.3066,0.4652,0.776]},{"id":2326,"tgK":423.15,"scaled":[-0.0275,0.3903,0.336,-0.0915,-0.9421,-0.325,-0.2011,-0.3177,-0.1375,-0.1033,0,-0.495,0.302,-0.306,-0.1909,-0.9856,0.8598,0.0677]},{"id":2270,"tgK":186.15,"scaled":[-0.7644,-1.0031,-1.2152,-0.4439,-0.9421,-0.325,4.0687,-0.3177,-0.1375,-0.1033,0,-0.2856,-1.2298,-1.2788,-0.1909,0.3689,-1.7016,-0.8542]},{"id":5177,"tgK":566.15,"scaled":[0.6811,0.517,0.7238,0.2609,0.2463,-0.325,-0.2011,0.6866,-0.1375,-0.1033,0,0.7615,0.9148,0.6667,-0.1909,0.0804,0.6301,0.5823]},{"id":5304,"tgK":474.15,"scaled":[1.4463,1.4037,1.7579,2.0229,0.2463,1.3221,-0.2011,-0.3177,-0.1375,-0.1033,0,0.9709,1.8339,1.6395,-0.1909,0.0924,1.0625,1.5008]},{"id":4463,"tgK":373.65,"scaled":[-0.3676,-0.4964,-0.4396,0.6133,-0.3479,-0.325,-0.2011,-0.3177,-0.1375,-0.1033,0,-0.2856,-0.3107,0.6667,-0.1909,0.4846,-0.1415,-0.4349]},{"id":5451,"tgK":460.15,"scaled":[0.1142,0.0736,-0.4396,0.6133,0.2463,-0.325,-0.2011,-0.3177,-0.1375,-0.1033,0,-0.0762,0.302,1.1531,-0.1909,0.133,-0.5099,0.0676]},{"id":4892,"tgK":408.15,"scaled":[0.8794,0.707,0.336,0.6133,0.2463,-0.325,-0.2011,1.6909,-0.1375,-0.1033,0,0.9709,0.6084,0.6667,-0.1909,0.7923,0.0319,1.031]},{"id":5555,"tgK":521.15,"scaled":[0.5677,0.2003,0.336,-0.0915,-0.9421,1.3221,-0.2011,1.6909,-0.1375,-0.1033,0,1.5991,-0.0044,-0.306,-0.1909,0.4352,0.2486,0.5205]},{"id":5263,"tgK":468.95,"scaled":[0.6244,0.4536,0.7238,1.6705,0.8405,-0.325,-0.2011,-0.3177,-0.1375,-0.1033,0,0.7615,0.302,0.6667,2.2627,0.6165,0.6819,0.6193]},{"id":6436,"tgK":435.15,"scaled":[0.511,0.8336,1.1116,0.2609,-0.9421,-0.325,-0.2011,-0.3177,-0.1375,-0.1033,0,0.5521,0.6084,-0.306,-0.1909,-1.0196,1.2917,0.4795]},{"id":1457,"tgK":346.15,"scaled":[-0.5943,-0.3064,-0.4396,-0.7963,-0.3479,-0.325,-0.2011,-0.3177,-0.1375,-0.1033,0,-0.7044,-0.3107,-0.7924,-0.1909,-0.8958,0.1241,-0.55]},{"id":3378,"tgK":335.15,"scaled":[0.0292,-0.1164,-0.4396,-0.0915,1.4347,-0.325,-0.2011,-0.3177,-0.1375,-0.1033,0,0.1332,-0.3107,0.6667,-0.1909,0.2381,-0.458,-0.097]},{"id":2248,"tgK":297.15,"scaled":[-0.1975,-0.0531,-0.4396,0.2609,0.2463,-0.325,-0.2011,-0.3177,-0.1375,3.4411,0,-0.495,-0.6171,0.1803,-0.1909,0.569,-0.2949,0.2317]},{"id":5,"tgK":473.15,"scaled":[-0.8778,-0.6231,-0.4396,-1.5011,-0.9421,-0.325,-0.2011,-0.3177,-0.1375,-0.1033,0,-0.9138,-0.6171,-0.7924,-0.1909,-2.2846,0.6175,-0.9864]},{"id":2943,"tgK":507.15,"scaled":[0.8511,0.3903,0.336,0.6133,0.2463,-0.325,-0.2011,1.6909,-0.1375,-0.1033,0,1.3897,0.6084,0.6667,-0.1909,0.8237,0.0496,0.7839]},{"id":3117,"tgK":323.15,"scaled":[-0.1125,0.0103,-0.4396,0.9657,-0.3479,-0.325,-0.2011,-0.3177,-0.1375,-0.1033,0,-0.0762,-0.6171,0.6667,-0.1909,0.4352,-0.3609,0.0264]},{"id":6246,"tgK":475.15,"scaled":[3.5719,3.1137,1.1116,0.9657,3.8115,-0.325,-0.2011,1.6909,-0.1375,-0.1033,0,3.9026,1.8339,3.5849,9.6236,0.0707,-0.3747,3.3208]},{"id":4766,"tgK":485.15,"scaled":[-0.2542,0.1369,0.7238,-1.1487,-0.9421,-0.325,-0.2011,-0.3177,-0.1375,-0.1033,0,-0.7044,0.302,-1.2788,-0.1909,-1.9158,1.9343,-0.3275]},{"id":461,"tgK":425.15,"scaled":[0.1426,0.327,0.7238,0.2609,-0.9421,-0.325,-0.2011,-0.3177,-0.1375,-0.1033,0,0.1332,0.302,0.1803,-0.1909,-0.7943,1.237,0.0842]},{"id":1997,"tgK":490.15,"scaled":[-0.9911,-1.0664,-0.8274,-0.4439,-0.9421,1.3221,-0.2011,-0.3177,-0.1375,-0.1033,0,-0.7044,-0.9235,-0.306,-0.1909,0.3528,-0.4015,-1.0029]},{"id":859,"tgK":463.15,"scaled":[0.4543,1.5303,-0.4396,-0.0915,0.2463,-0.325,-0.2011,-0.3177,-0.1375,-0.1033,0,-0.2856,-0.6171,-0.306,4.7164,-0.7304,-0.6801,1.0727]},{"id":7335,"tgK":348,"scaled":[-1.0761,-1.1298,-0.8274,-0.0915,-0.9421,-0.325,-0.2011,-0.3177,-0.1375,-0.1033,0,-0.9138,-0.9235,-0.306,-0.1909,0.6165,-0.2715,-1.1184]},{"id":2560,"tgK":226.67,"scaled":[-0.651,-1.0031,-1.2152,-0.4439,0.2463,-0.325,4.0687,-0.3177,-0.1375,-0.1033,0,-0.2856,-1.2298,-0.306,-0.1909,1.1,-1.7016,-0.7389]},{"id":4383,"tgK":268.15,"scaled":[-0.8778,-0.8131,-1.2152,0.6133,-0.9421,-0.325,-0.2011,-0.3177,-0.1375,-0.1033,0,-0.9138,-0.9235,-0.306,-0.1909,1.2438,-1.7016,-0.7396]},{"id":5236,"tgK":518.15,"scaled":[0.596,0.6436,0.9823,0.9657,0.2463,-0.325,-0.2011,-0.3177,-0.1375,-0.1033,0,0.1332,1.2211,0.6667,-0.1909,-0.0843,1.0301,0.5783]},{"id":4340,"tgK":352.15,"scaled":[-0.2542,-0.1164,-0.3103,-0.0915,0.2463,1.3221,-0.2011,-0.3177,-0.1375,-0.1033,0,-0.495,-0.3107,-0.306,-0.1909,0.2969,-0.0049,-0.0804]},{"id":6488,"tgK":448.15,"scaled":[0.6244,0.8336,1.1116,-0.0915,0.2463,1.3221,-0.2011,-0.3177,-0.1375,-0.1033,0,0.1332,1.2211,0.1803,-0.1909,-0.5923,1.1586,0.6609]},{"id":1505,"tgK":361.85,"scaled":[-1.3879,-1.5098,-1.2152,-1.1487,-0.3479,-0.325,-0.2011,-0.3177,-0.1375,-0.1033,0,-0.9138,-1.2298,-0.7924,-0.1909,0.0058,-1.7016,-1.5548]},{"id":2446,"tgK":325.15,"scaled":[-0.7927,-0.2431,-1.2152,-0.7963,0.2463,-0.325,-0.2011,-0.3177,-0.1375,-0.1033,0,-1.1232,-1.2298,-0.306,-0.1909,-0.1088,-1.7016,-0.4429]},{"id":1861,"tgK":400.65,"scaled":[-0.9911,-0.8764,-0.4396,-1.1487,-0.9421,-0.325,-0.2011,-0.3177,-0.1375,-0.1033,0,-0.9138,-0.6171,-0.7924,-0.1909,-1.6253,0.8986,-1.1183]},{"id":831,"tgK":493.15,"scaled":[-1.3879,-1.4464,-1.2152,-1.5011,-0.3479,-0.325,-0.2011,-0.3177,-0.1375,-0.1033,0,-1.1232,-0.9235,-1.2788,2.2627,-1.1394,-1.7016,-1.5713]},{"id":1722,"tgK":344.15,"scaled":[-0.9628,-0.9398,-0.8274,-0.7963,-0.9421,-0.325,-0.2011,-0.3177,-0.1375,-0.1033,0,-0.495,-0.9235,-0.7924,-0.1909,-1.0047,-0.4397,-1.1018]},{"id":2702,"tgK":461.15,"scaled":[1.7014,1.847,2.1457,0.2609,3.8115,-0.325,-0.2011,-0.3177,-0.1375,-0.1033,0,0.3427,1.8339,-0.306,-0.1909,-0.0748,1.2033,1.7316]},{"id":402,"tgK":439.15,"scaled":[-0.0275,0.2636,0.7238,-0.0915,-0.9421,-0.325,-0.2011,-0.3177,-0.1375,-0.1033,0,-0.2856,0.302,-0.306,-0.1909,-0.9856,1.5002,-0.0311]},{"id":4954,"tgK":406.65,"scaled":[-0.9628,-0.8764,-0.4396,-0.4439,-0.9421,-0.325,-0.2011,-0.3177,-0.1375,-0.1033,0,-0.9138,-0.6171,-0.7924,-0.1909,-0.3648,0.8221,-0.9866]},{"id":7039,"tgK":494.15,"scaled":[0.1426,0.0103,0.5945,0.6133,0.2463,-0.325,-0.2011,-0.3177,-0.1375,-0.1033,0,-0.0762,0.6084,0.6667,-0.1909,0.0999,1.0411,0.0182]},{"id":4511,"tgK":313.15,"scaled":[-0.7644,-0.7498,-0.4396,-0.0915,-0.9421,-0.325,-0.2011,-0.3177,-0.1375,-0.1033,0,-0.7044,-0.6171,-0.306,-0.1909,-0.1618,0.3912,-0.8219]},{"id":495,"tgK":427.15,"scaled":[-1.0195,-0.9398,-0.4396,-0.7963,-0.9421,-0.325,-0.2011,-0.3177,-0.1375,-0.1033,0,-0.9138,-0.6171,-0.7924,-0.1909,-0.9247,0.9799,-1.1018]},{"id":3533,"tgK":368.15,"scaled":[-0.9344,-0.8131,-0.6335,-1.5011,2.0289,-0.325,-0.2011,-0.3177,-0.1375,-0.1033,0,-1.1232,-0.6171,-1.2788,-0.1909,0.8237,0.1371,-0.8464]},{"id":3750,"tgK":316.15,"scaled":[-0.4243,-0.0531,-0.4396,-0.0915,0.2463,-0.325,-0.2011,-0.3177,-0.1375,-0.1033,0,-0.7044,-0.6171,-0.306,-0.1909,0.1786,-0.0826,-0.1629]},{"id":5391,"tgK":650.15,"scaled":[0.5677,0.0103,-0.0518,-0.0915,0.2463,-0.325,-0.2011,1.6909,-0.1375,-0.1033,0,1.3897,0.302,0.6667,-0.1909,0.6825,-0.239,0.3556]},{"id":662,"tgK":517.15,"scaled":[1.503,1.9103,2.4043,-0.0915,1.4347,-0.325,-0.2011,-0.3177,-0.1375,-0.1033,0,0.5521,2.1402,-0.306,-0.1909,-0.846,1.6078,1.4845]},{"id":5137,"tgK":511.15,"scaled":[0.426,0.3903,0.7238,0.6133,0.2463,1.3221,-0.2011,-0.3177,-0.1375,-0.1033,0,0.1332,0.9148,0.6667,-0.1909,0.0747,0.8829,0.4467]},{"id":571,"tgK":429.15,"scaled":[0.9645,0.4536,0.336,1.6705,1.4347,-0.325,-0.2011,-0.3177,-0.1375,-0.1033,0,1.1803,0.9148,2.6122,-0.1909,0.4885,-0.0191,0.677]},{"id":3439,"tgK":298.15,"scaled":[0.1426,-0.9398,-1.2152,-0.0915,0.2463,-0.325,-0.2011,4.369,-0.1375,-0.1033,0,1.8085,-1.2298,-0.306,-0.1909,3.6766,-1.7016,0.2398]},{"id":7210,"tgK":479.65,"scaled":[0.9928,0.5803,0.7238,0.6133,0.2463,-0.325,-0.2011,1.6909,-0.1375,-0.1033,0,1.3897,0.9148,0.6667,-0.1909,0.6729,0.3811,0.9321]},{"id":262,"tgK":545.15,"scaled":[0.7094,0.9603,0.7238,-0.0915,0.2463,-0.325,-0.2011,-0.3177,-0.1375,-0.1033,0,0.7615,0.9148,-0.306,-0.1909,-0.8808,0.605,0.6279]},{"id":4640,"tgK":300.15,"scaled":[0.9645,1.4037,-0.5689,0.2609,-0.9421,-0.325,1.9338,-0.3177,-0.1375,-0.1033,0,0.7615,0.6084,0.1803,-0.1909,-1.0047,-1.0006,1.04]},{"id":1465,"tgK":315.75,"scaled":[-0.9628,-0.9398,-0.8274,-0.7963,-0.9421,-0.325,-0.2011,-0.3177,5.137,-0.1033,0,-0.7044,-0.9235,-0.7924,-0.1909,0.2752,-0.4397,-0.8101]},{"id":6463,"tgK":428.15,"scaled":[0.8228,0.327,0.5945,-0.7963,-0.9421,1.3221,-0.2011,3.6995,-0.1375,-0.1033,0,1.8085,0.302,-1.2788,-0.1909,1.0801,0.3625,0.9568]},{"id":6357,"tgK":471.15,"scaled":[0.7377,0.8336,1.2409,-0.0915,0.8405,1.3221,-0.2011,-0.3177,-0.1375,-0.1033,0,0.5521,0.9148,-0.306,-0.1909,-0.4328,1.1891,0.7186]},{"id":5294,"tgK":504.15,"scaled":[0.3693,0.3903,0.7238,0.6133,0.2463,1.3221,-0.2011,-0.3177,-0.1375,-0.1033,0,-0.0762,0.9148,0.6667,-0.1909,0.133,0.9468,0.4467]},{"id":3291,"tgK":286.45,"scaled":[-0.4243,-0.1164,0.336,-0.7963,-0.3479,-0.325,-0.2011,-0.3177,-0.1375,-0.1033,0,-0.7044,-0.0044,-0.7924,-0.1909,-1.053,1.5364,-0.4017]},{"id":297,"tgK":282.15,"scaled":[-0.2542,-0.6231,-0.8274,0.2609,-0.9421,-0.325,-0.2011,1.6909,-0.1375,-0.1033,0,0.5521,-0.9235,-0.306,-0.1909,1.7721,-0.9744,-0.1881]},{"id":1130,"tgK":337.15,"scaled":[-1.1895,-1.3831,-1.2152,-0.4439,-0.9421,1.3221,-0.2011,-0.3177,-0.1375,-0.1033,0,-0.7044,-1.2298,-0.306,-0.1909,1.0629,-1.7016,-1.25]},{"id":6667,"tgK":586.15,"scaled":[0.0859,0.0103,0.5945,0.6133,0.2463,-0.325,-0.2011,-0.3177,-0.1375,-0.1033,0,-0.2856,0.6084,0.6667,-0.1909,0.167,1.1184,0.0182]},{"id":820,"tgK":421.15,"scaled":[-0.9911,-0.6864,-0.8274,-1.5011,-0.9421,-0.325,-0.2011,-0.3177,-0.1375,-0.1033,0,-1.1232,-0.3107,-1.2788,-0.1909,-2.2846,-0.4015,-1.0358]},{"id":2999,"tgK":496.15,"scaled":[1.1345,1.277,1.1116,0.6133,0.2463,-0.325,-0.2011,-0.3177,-0.1375,-0.1033,0,1.1803,1.2211,0.6667,-0.1909,-0.6729,0.6819,1.0067]},{"id":6005,"tgK":481.15,"scaled":[0.5677,0.6436,0.336,-1.5011,2.6231,-0.325,-0.2011,-0.3177,-0.1375,-0.1033,0,0.9709,-0.0044,-0.306,9.6236,-0.8011,0.2486,0.348]},{"id":5828,"tgK":437.15,"scaled":[-0.4526,-0.2431,-0.4396,-0.7963,0.2463,-0.325,-0.2011,-0.3177,-0.1375,-0.1033,0,-0.2856,-0.6171,-0.306,-0.1909,-0.6109,-0.0515,-0.4429]},{"id":7236,"tgK":226,"scaled":[-1.5863,-1.5731,-1.2152,-1.5011,-0.9421,1.3221,-0.2011,-0.3177,-0.1375,-0.1033,0,-1.3326,-1.2298,-1.2788,-0.1909,-0.4714,-1.7016,-1.5958]},{"id":6378,"tgK":428.15,"scaled":[1.0778,1.5937,1.8872,-0.4439,0.2463,-0.325,-0.2011,-0.3177,-0.1375,-0.1033,0,0.5521,1.2211,-0.306,-0.1909,-1.2583,1.5364,1.0562]},{"id":1390,"tgK":484.65,"scaled":[-0.3393,-0.4964,-0.4396,-0.4439,0.2463,-0.325,-0.2011,0.6866,-0.1375,-0.1033,0,-0.0762,-0.6171,-0.306,-0.1909,0.8237,-0.1693,-0.3402]},{"id":5168,"tgK":437.15,"scaled":[-0.3109,-0.3697,-0.4396,0.2609,0.2463,-0.325,-0.2011,-0.3177,-0.1375,-0.1033,0,-0.495,-0.0044,0.6667,-0.1909,0.3875,-0.1962,-0.3442]},{"id":893,"tgK":377.75,"scaled":[0.0859,-0.0531,-0.4396,0.2609,1.4347,-0.325,-0.2011,-0.3177,-0.1375,-0.1033,0,-0.0762,-0.3107,3.0986,-0.1909,0.4735,-0.4931,0.0182]},{"id":292,"tgK":358.15,"scaled":[-0.2542,-0.6231,-1.2152,0.6133,0.2463,1.3221,-0.2011,-0.3177,-0.1375,-0.1033,0,0.5521,-0.9235,0.6667,-0.1909,1.0345,-1.7016,-0.3441]},{"id":3221,"tgK":283.15,"scaled":[-1.3879,-1.3831,-1.2152,-1.5011,-0.3479,-0.325,-0.2011,-0.3177,-0.1375,-0.1033,0,-1.1232,-1.2298,-0.7924,-0.1909,-1.1394,-1.7016,-1.5218]},{"id":5970,"tgK":620.65,"scaled":[1.0212,0.9603,0.7238,0.6133,0.2463,-0.325,-0.2011,-0.3177,-0.1375,-0.1033,0,1.3897,0.9148,1.1531,-0.1909,-0.6109,0.3611,0.7595]},{"id":2372,"tgK":383.15,"scaled":[-0.9061,-0.7498,-0.8274,-0.7963,0.2463,-0.325,-0.2011,-0.3177,-0.1375,-0.1033,0,-0.9138,-0.9235,-0.306,-0.1909,0.133,-0.5099,-0.8383]},{"id":2984,"tgK":401.15,"scaled":[-0.651,-0.6231,-0.1811,-1.5011,0.2463,-0.325,-0.2011,-0.3177,-0.1375,-0.1033,0,-0.9138,-0.3107,-1.2788,-0.1909,-1.3176,0.8408,-0.8711]},{"id":1553,"tgK":405.15,"scaled":[-0.7644,-0.6864,-0.4396,-0.0915,-0.9421,-0.325,-0.2011,-0.3177,-0.1375,-0.1033,0,-0.7044,-0.6171,-0.306,-0.1909,-0.1618,0.3912,-0.7725]},{"id":4478,"tgK":291.65,"scaled":[-0.6227,-0.4964,-0.4396,0.2609,-0.9421,-0.325,-0.2011,-0.3177,-0.1375,-0.1033,0,-0.7044,-0.6171,-0.306,-0.1909,0.0804,0.1638,-0.5583]},{"id":4035,"tgK":585.15,"scaled":[0.7661,0.3903,0.8531,-0.0915,2.6231,1.3221,-0.2011,-0.3177,-0.1375,-0.1033,0,0.3427,0.9148,0.6667,-0.1909,0.2348,0.707,0.5456]},{"id":6469,"tgK":499.15,"scaled":[0.9078,0.517,0.8531,-0.0915,0.8405,1.3221,-0.2011,1.6909,-0.1375,-0.1033,0,1.3897,0.6084,-0.306,-0.1909,0.7616,0.5866,0.9406]},{"id":1794,"tgK":328.15,"scaled":[-1.0195,-1.0664,-1.2152,-0.7963,-0.9421,-0.325,-0.2011,-0.3177,-0.1375,-0.1033,0,-0.2856,-1.2298,-0.7924,-0.1909,-0.9247,-1.7016,-1.2007]},{"id":6390,"tgK":393.15,"scaled":[1.1345,1.5937,1.8872,-0.0915,0.2463,-0.325,-0.2011,-0.3177,-0.1375,-0.1033,0,0.5521,1.2211,-0.306,-0.1909,-1.0758,1.4764,1.1221]},{"id":3333,"tgK":542.15,"scaled":[-0.3959,-0.4331,-0.0518,-0.4439,1.4347,-0.325,-0.2011,-0.3177,-0.1375,-0.1033,0,-0.2856,-0.3107,-0.306,-0.1909,0.5359,0.6819,-0.41]},{"id":2062,"tgK":386.15,"scaled":[0.7661,-0.2431,-0.8274,-0.4439,0.2463,-0.325,-0.2011,4.7038,-0.1375,-0.1033,0,2.4367,-0.6171,0.1803,-0.1909,2.2961,-1.25,0.7958]},{"id":210,"tgK":473.15,"scaled":[0.511,0.4536,-0.0518,0.6133,2.0289,-0.325,-0.2011,-0.3177,-0.1375,-0.1033,0,0.5521,-0.0044,1.6395,-0.1909,0.4985,-0.205,0.5371]},{"id":3600,"tgK":490.15,"scaled":[-0.0842,0.0103,0.336,-0.0915,0.2463,-0.325,-0.2011,-0.3177,-0.1375,-0.1033,0,-0.0762,-0.0044,0.1803,-0.1909,-0.2761,0.9386,-0.1135]},{"id":742,"tgK":471.15,"scaled":[-0.2826,-1.2564,-1.2152,-1.5011,-0.9421,-0.325,-0.2011,4.369,-0.1375,-0.1033,0,1.3897,-0.9235,-1.2788,-0.1909,2.9674,-1.7016,-0.386]},{"id":3708,"tgK":565.15,"scaled":[2.0698,1.7203,1.7579,1.3181,1.4347,-0.325,-0.2011,1.6909,-0.1375,-0.1033,0,2.2273,1.8339,1.6395,-0.1909,0.4931,0.6312,2.0688]},{"id":6844,"tgK":582.15,"scaled":[4.0537,4.5704,4.9896,0.6133,0.2463,-0.325,-0.2011,-0.3177,-0.1375,-0.1033,0,2.0179,4.2848,0.6667,-0.1909,-1.4597,1.5518,3.5767]},{"id":4654,"tgK":318.15,"scaled":[-0.4243,-0.3697,-0.4396,-0.0915,-0.3479,-0.325,1.9338,-0.3177,-0.1375,-0.1033,0,-0.495,-0.6171,-0.7924,2.2627,0.1786,-0.0826,-0.3521]},{"id":2584,"tgK":218.15,"scaled":[-1.3879,-1.4464,-1.2152,-1.5011,-0.9421,-0.325,1.9338,-0.3177,-0.1375,-0.1033,0,-1.1232,-1.2298,-1.2788,-0.1909,-1.1394,-1.7016,-1.5133]},{"id":3819,"tgK":525.15,"scaled":[-0.1409,-0.1164,0.336,-0.4439,0.2463,-0.325,-0.2011,-0.3177,-0.1375,-0.1033,0,-0.0762,-0.0044,0.1803,-0.1909,-0.5578,1.0224,-0.2782]},{"id":1293,"tgK":376.35,"scaled":[0.2276,0.517,-0.4396,0.2609,0.2463,-0.325,-0.2011,-0.3177,-0.1375,-0.1033,0,-0.2856,0.302,0.1803,-0.1909,-0.2805,-0.5726,0.3477]},{"id":6107,"tgK":363.15,"scaled":[0.0292,0.2003,-0.0518,-0.0915,-0.9421,-0.325,-0.2011,-0.3177,-0.1375,-0.1033,0,0.5521,-0.3107,-0.306,-0.1909,-1.0233,0.1638,-0.0805]},{"id":7149,"tgK":401.325,"scaled":[-1.5296,-1.5731,-1.2152,-1.1487,-0.3479,-0.325,-0.2011,-0.3177,-0.1375,-0.1033,0,-1.3326,-1.2298,-0.7924,-0.1909,0.8237,-1.7016,-1.6043]},{"id":6756,"tgK":608.15,"scaled":[0.6527,0.1369,0.336,0.6133,0.2463,-0.325,-0.2011,1.6909,-0.1375,-0.1033,0,0.9709,0.6084,0.6667,-0.1909,1.0629,0.1843,0.5862]},{"id":5669,"tgK":637.15,"scaled":[0.426,0.0736,0.5945,-0.0915,0.2463,-0.325,-0.2011,0.6866,-0.1375,-0.1033,0,0.5521,0.6084,0.6667,-0.1909,0.0747,0.7106,0.1705]},{"id":3000,"tgK":552.15,"scaled":[1.503,1.2136,1.1116,0.6133,2.6231,-0.325,-0.2011,0.0171,-0.1375,-0.1033,0,1.5991,1.2211,2.1258,-0.1909,0.0531,0.4258,1.266]},{"id":4080,"tgK":483.15,"scaled":[0.6244,0.7703,1.1116,0.6133,0.2463,-0.325,-0.2011,-0.3177,-0.1375,-0.1033,0,0.5521,0.6084,0.6667,-0.1909,-0.3505,1.1586,0.6113]},{"id":1070,"tgK":240.15,"scaled":[-1.3312,-1.2564,-1.2152,-0.7963,-0.9421,-0.325,-0.2011,-0.3177,-0.1375,-0.1033,0,-1.1232,-1.2298,-0.7924,-0.1909,-0.2124,-1.7016,-1.349]},{"id":1746,"tgK":317.15,"scaled":[-1.1328,-1.0031,-0.8274,-1.1487,-0.9421,-0.325,-0.2011,-0.3177,-0.1375,-0.1033,0,-0.9138,-0.9235,-0.7924,-0.1909,-1.5075,-0.1693,-1.2171]},{"id":2310,"tgK":207.15,"scaled":[-1.1045,-1.0031,-1.2152,0.2609,-0.9421,-0.325,-0.2011,-0.3177,-0.1375,-0.1033,0,-1.1232,-1.2298,-0.306,-0.1909,1.4669,-1.7016,-0.9537]},{"id":802,"tgK":428.15,"scaled":[-0.5943,-0.7498,-1.2152,0.6133,-0.9421,-0.325,-0.2011,-0.3177,-0.1375,-0.1033,0,-0.495,-0.3107,0.1803,-0.1909,0.4931,-1.7016,-0.6902]},{"id":3927,"tgK":523.15,"scaled":[1.0212,0.9603,0.336,0.9657,1.4347,-0.325,-0.2011,-0.3177,-0.1375,-0.1033,0,0.7615,1.2211,1.6395,-0.1909,0.0168,-0.0515,0.9407]},{"id":192,"tgK":425.15,"scaled":[-0.6227,-0.4964,-0.0518,-0.7963,-0.3479,1.3221,-0.2011,-0.3177,-0.1375,-0.1033,0,-0.7044,-0.3107,-0.306,-0.1909,-0.3926,1.0965,-0.5663]},{"id":3370,"tgK":420.15,"scaled":[0.1992,-0.1797,-0.0518,0.6133,2.6231,-0.325,-0.2011,-0.3177,-0.1375,-0.1033,0,-0.0762,-0.3107,0.6667,-0.1909,1.1967,0.0145,0.1005]},{"id":1216,"tgK":382.15,"scaled":[-1.0761,-1.0664,-1.2152,-0.7963,-0.9421,-0.325,-0.2011,-0.3177,-0.1375,-0.1033,0,-0.7044,-0.9235,-0.7924,-0.1909,-0.8341,-1.7016,-1.2007]},{"id":2771,"tgK":491.15,"scaled":[1.3046,0.6436,0.5945,1.3181,1.4347,-0.325,-0.2011,1.6909,-0.1375,-0.1033,0,1.5991,1.2211,1.6395,-0.1909,1.1509,0.0547,1.2286]},{"id":3407,"tgK":431.15,"scaled":[-0.1409,-0.1164,-0.0518,-0.4439,1.4347,2.9692,-0.2011,-0.3177,-0.1375,-0.1033,0,-0.2856,-0.3107,-0.306,4.7164,0.8237,0.3414,0.101]},{"id":7079,"tgK":321.15,"scaled":[-0.481,-0.1164,-0.2457,-1.5011,2.0289,-0.325,-0.2011,-0.3177,-0.1375,-0.1033,0,-0.7044,-0.3107,-1.2788,-0.1909,-0.1514,0.4015,-0.3028]},{"id":1189,"tgK":383.15,"scaled":[0.1992,-0.4331,-0.4396,1.3181,-0.3479,1.3221,-0.2011,-0.3177,-0.1375,14.0742,0,0.7615,-0.6171,0.6667,-0.1909,1.777,-0.5575,1.1934]},{"id":1471,"tgK":471.15,"scaled":[-0.8211,-0.7498,-0.8274,-0.7963,-0.9421,-0.325,-0.2011,-0.3177,-0.1375,-0.1033,0,-0.2856,-0.9235,-0.7924,-0.1909,-1.1688,-0.6015,-0.9536]},{"id":5471,"tgK":497.15,"scaled":[0.596,0.517,0.2714,-0.0915,2.0289,-0.325,-0.2011,-0.3177,-0.1375,-0.1033,0,0.7615,0.6084,0.6667,-0.1909,-0.0843,0.1463,0.4549]},{"id":7291,"tgK":413.5,"scaled":[-1.3029,-1.2564,-0.8274,-1.5011,-0.9421,-0.325,-0.2011,-0.3177,-0.1375,3.4411,0,-1.1232,-0.9235,-1.2788,-0.1909,-1.2956,0.2486,-1.1518]},{"id":1886,"tgK":368.15,"scaled":[-0.566,-0.1797,-0.4396,-0.4439,-0.9421,-0.325,-0.2011,-0.3177,-0.1375,-0.1033,0,-0.7044,-0.6171,-0.7924,-0.1909,-0.9247,0.086,-0.4429]},{"id":3208,"tgK":476.15,"scaled":[1.2762,0.5803,0.7238,1.3181,2.6231,-0.325,-0.2011,-0.3177,-0.1375,-0.1033,0,1.1803,0.302,1.6395,-0.1909,0.4111,0.1968,0.8253]},{"id":2842,"tgK":322.95,"scaled":[-0.8211,-1.0664,-1.2152,1.6705,-0.9421,-0.325,-0.2011,-0.3177,-0.1375,-0.1033,0,-0.495,-1.2298,0.1803,-0.1909,2.7366,-1.7016,-0.7398]},{"id":97,"tgK":290.15,"scaled":[-0.5376,-0.1797,-0.4396,0.6133,-0.9421,-0.325,-0.2011,-0.3177,-0.1375,-0.1033,0,-0.9138,-0.6171,-0.306,-0.1909,0.3797,0.0496,-0.2454]},{"id":1671,"tgK":327.4,"scaled":[-0.6794,-0.5597,-0.4396,-0.4439,-0.3479,-0.325,-0.2011,-0.3177,-0.1375,-0.1033,0,-0.7044,-0.6171,-0.7924,2.2627,-0.3066,0.2486,-0.6818]},{"id":141,"tgK":451.15,"scaled":[0.7377,1.2136,1.4994,-0.7963,0.2463,-0.325,-0.2011,-0.3177,-0.1375,-0.1033,0,0.3427,0.9148,0.1803,-0.1909,-1.3587,1.4933,0.6939]},{"id":1878,"tgK":359.15,"scaled":[-1.2462,-1.1931,-0.8274,-1.1487,-0.9421,-0.325,-0.2011,-0.3177,-0.1375,3.4411,0,-1.1232,-0.9235,-1.2788,-0.1909,-0.4714,0.086,-1.0366]},{"id":599,"tgK":565.15,"scaled":[0.3126,0.1369,0.336,0.6133,0.2463,-0.325,-0.2011,-0.3177,-0.1375,-0.1033,0,0.3427,0.6084,1.1531,-0.1909,-0.0812,0.4707,0.117]},{"id":903,"tgK":388.15,"scaled":[-0.736,-0.7498,-1.2152,-0.7963,-0.9421,-0.325,-0.2011,-0.3177,-0.1375,-0.1033,0,-0.495,-0.3107,-0.306,-0.1909,-1.2485,-1.7016,-0.9536]},{"id":4087,"tgK":567.15,"scaled":[0.7377,0.3903,0.5299,0.2609,3.8115,-0.325,-0.2011,-0.3177,-0.1375,-0.1033,0,0.7615,0.9148,1.1531,-0.1909,0.7245,0.3523,0.5948]},{"id":834,"tgK":512.15,"scaled":[0.0008,-0.1797,-1.2152,-0.0915,0.2463,-0.325,-0.2011,-0.3177,-0.1375,-0.1033,0,-0.0762,0.6084,1.1531,-0.1909,-0.3648,-1.7016,-0.2618]},{"id":2212,"tgK":370.65,"scaled":[0.1142,0.1369,-0.4396,1.3181,0.2463,-0.325,-0.2011,-0.3177,-0.1375,-0.1033,0,-0.0762,-0.0044,0.6667,-0.1909,0.7374,-0.5099,0.2487]},{"id":799,"tgK":608.15,"scaled":[-1.0195,-1.0664,-0.8274,-0.7963,-0.3479,-0.325,-0.2011,-0.3177,-0.1375,-0.1033,0,-0.9138,-0.6171,-0.306,-0.1909,-0.2448,-0.3609,-1.143]},{"id":584,"tgK":570.15,"scaled":[-0.3676,-0.4331,-0.0518,-0.0915,-0.3479,-0.325,-0.2011,-0.3177,-0.1375,-0.1033,0,-0.2856,-0.0044,0.1803,-0.1909,-0.3066,0.6386,-0.5171]},{"id":2347,"tgK":333.15,"scaled":[-0.9061,-0.4964,-1.2152,-0.7963,0.2463,-0.325,-0.2011,-0.3177,-0.1375,-0.1033,0,-1.1232,-1.2298,-0.306,-0.1909,0.133,-1.7016,-0.6406]},{"id":2065,"tgK":403.15,"scaled":[-0.1409,0.0103,-0.0518,-0.4439,0.2463,-0.325,-0.2011,-0.3177,-0.1375,-0.1033,0,-0.2856,-0.0044,-0.306,2.2627,-0.5578,0.3414,-0.1793]},{"id":1419,"tgK":293.15,"scaled":[-0.2542,-0.1797,-0.4396,0.6133,0.8405,-0.325,-0.2011,-0.3177,-0.1375,-0.1033,0,-0.495,-0.6171,-0.306,2.2627,1.0345,-0.2473,-0.0724]},{"id":3500,"tgK":441.15,"scaled":[-1.0195,-0.8764,-1.2152,-0.0915,0.2463,-0.325,-0.2011,-0.3177,-0.1375,-0.1033,0,-1.1232,-1.2298,-0.306,-0.1909,1.7951,-1.7016,-0.8054]},{"id":6893,"tgK":411.15,"scaled":[0.341,0.517,0.336,0.6133,0.2463,-0.325,-0.2011,-0.3177,-0.1375,-0.1033,0,-0.0762,0.6084,0.6667,-0.1909,-0.1088,0.4436,0.4136]},{"id":5986,"tgK":516.15,"scaled":[1.4179,1.5937,1.4994,0.6133,1.4347,-0.325,-0.2011,-0.3177,-0.1375,-0.1033,0,0.9709,1.8339,0.6667,2.2627,-0.4407,0.8435,1.3691]},{"id":7089,"tgK":195.5,"scaled":[-1.4446,-1.3198,-1.2152,-1.5011,-0.9421,-0.325,-0.2011,-0.3177,-0.1375,-0.1033,0,-1.3326,-1.2298,-0.306,-0.1909,-2.2846,-1.7016,-1.5301]},{"id":2522,"tgK":203.15,"scaled":[-1.3879,-1.1298,-1.2152,-1.5011,-0.9421,4.6162,-0.2011,-0.3177,-0.1375,-0.1033,0,-1.542,-1.2298,-1.2788,-0.1909,1.1509,-1.7016,-0.986]},{"id":2150,"tgK":343.15,"scaled":[-1.4162,-1.3831,-1.2152,-1.5011,-0.9421,-0.325,-0.2011,-0.3177,5.137,-0.1033,0,-1.1232,-1.2298,-1.2788,-0.1909,0.133,-1.7016,-1.2877]},{"id":1598,"tgK":337.15,"scaled":[-0.566,-0.6231,-0.4396,-0.7963,-0.3479,-0.325,-0.2011,-0.3177,-0.1375,3.4411,0,-0.495,-0.6171,0.1803,-0.1909,-0.4714,0.086,-0.4683]},{"id":6343,"tgK":528.15,"scaled":[1.5313,1.0236,1.2409,-0.0915,0.2463,-0.325,-0.2011,3.6995,-0.1375,-0.1033,0,2.2273,1.2211,-1.2788,-0.1909,0.9257,0.5256,1.6155]},{"id":3989,"tgK":578.15,"scaled":[3.2318,2.5437,2.9213,2.3753,4.4057,-0.325,-0.2011,-0.3177,-0.1375,-0.1033,0,1.8085,3.0593,1.6395,-0.1909,0.1064,0.8129,2.7279]},{"id":1396,"tgK":396.15,"scaled":[0.0575,-0.3064,-0.2457,0.2609,2.0289,1.3221,-0.2011,-0.3177,-0.1375,-0.1033,0,0.3427,-0.3107,0.6667,-0.1909,1.1346,-0.1693,0.0101]},{"id":3158,"tgK":301.15,"scaled":[0.0008,0.1369,-0.4396,1.6705,-0.3479,-0.325,-0.2011,-0.3177,-0.1375,-0.1033,0,-0.0762,-0.6171,0.6667,-0.1909,0.9152,-0.4397,0.2569]},{"id":4995,"tgK":314.15,"scaled":[1.4746,1.5303,0.336,2.7277,1.4347,-0.325,-0.2011,-0.3177,-0.1375,-0.1033,0,0.3427,0.6084,0.6667,-0.1909,0.6165,-0.2715,1.7147]},{"id":5482,"tgK":591.15,"scaled":[0.9645,1.0236,0.9823,0.2609,0.2463,-0.325,-0.2011,-0.3177,-0.1375,-0.1033,0,0.9709,1.2211,1.1531,-0.1909,-0.7914,0.6819,0.7431]},{"id":2681,"tgK":422.15,"scaled":[0.6244,0.327,0.4006,0.6133,2.6231,-0.325,-0.2011,-0.3177,-0.1375,-0.1033,0,0.1332,0.302,0.6667,-0.1909,0.6165,0.2847,0.4959]},{"id":4460,"tgK":343.15,"scaled":[-0.7077,-0.6231,-0.4396,-0.0915,-0.9421,-0.325,-0.2011,-0.3177,-0.1375,-0.1033,0,-0.7044,-0.6171,-0.306,-0.1909,-0.2606,0.2939,-0.723]},{"id":3867,"tgK":556.15,"scaled":[1.4746,1.277,1.4994,1.3181,0.2463,-0.325,-0.2011,1.6909,-0.1375,-0.1033,0,1.5991,1.2211,0.6667,-0.1909,0.6165,0.8011,1.6075]},{"id":6222,"tgK":406.15,"scaled":[0.6527,0.8336,0.7238,1.3181,0.2463,-0.325,-0.2011,-0.3177,-0.1375,-0.1033,0,0.7615,0.302,-0.306,-0.1909,0.1064,0.6557,0.7924]},{"id":6972,"tgK":580.65,"scaled":[0.9928,1.657,2.275,-1.1487,0.2463,-0.325,-0.2011,-0.3177,-0.1375,-0.1033,0,-0.0762,1.8339,-1.2788,-0.1909,-1.6509,2.0473,0.974]},{"id":3252,"tgK":217.15,"scaled":[-0.9911,-0.6231,-1.2152,-0.7963,-0.3479,-0.325,-0.2011,-0.3177,-0.1375,-0.1033,0,-1.1232,-1.2298,-0.7924,-0.1909,-0.3066,-1.7016,-0.7971]},{"id":3657,"tgK":521.15,"scaled":[-0.5943,-0.4964,-0.0518,-0.7963,0.2463,-0.325,-0.2011,-0.3177,-0.1375,-0.1033,0,-0.7044,-0.3107,-0.306,-0.1909,-0.4328,1.0369,-0.6406]},{"id":2116,"tgK":208.15,"scaled":[-1.2179,-1.2564,-1.2152,-1.5011,-0.9421,-0.325,1.9338,-0.3177,-0.1375,-0.1033,0,-1.1232,-1.2298,0.1803,-0.1909,-1.4143,-1.7016,-1.3651]},{"id":7182,"tgK":288.3,"scaled":[-1.2745,-1.1298,-0.9567,-1.5011,-0.9421,1.3221,-0.2011,-0.3177,-0.1375,-0.1033,0,-1.1232,-0.9235,-1.2788,-0.1909,-1.3386,-0.458,-1.2499]},{"id":1008,"tgK":317.15,"scaled":[-0.3959,0.3903,-0.4396,-0.7963,-0.9421,-0.325,-0.2011,-0.3177,-0.1375,-0.1033,0,-0.9138,-0.6171,-0.306,-0.1909,-1.4788,-0.1126,-0.0639]},{"id":4906,"tgK":585.15,"scaled":[-0.1409,0.0736,0.336,-0.0915,-0.9421,-0.325,-0.2011,-0.3177,-0.1375,-0.1033,0,-0.2856,0.302,-0.306,-0.1909,-0.9031,1.0224,-0.1794]},{"id":1014,"tgK":332.15,"scaled":[0.9078,1.3403,0.4653,1.3181,0.2463,-0.325,-0.2011,-0.3177,-0.1375,-0.1033,0,0.1332,0.302,1.1531,-0.1909,-0.1088,0.1575,1.1878]},{"id":2927,"tgK":220.15,"scaled":[-1.558,-1.5098,-1.2152,-1.1487,-0.9421,2.9692,-0.2011,-0.3177,-0.1375,-0.1033,0,-1.542,-1.2298,-1.2788,-0.1909,2.7366,-1.7016,-1.3486]},{"id":5948,"tgK":413.15,"scaled":[0.6244,1.467,0.7238,-1.5011,-0.3479,-0.325,-0.2011,-0.3177,-0.1375,-0.1033,0,0.3427,0.6084,-1.2788,-0.1909,-2.0429,0.6819,0.7022]},{"id":930,"tgK":360.15,"scaled":[-0.8211,-0.8131,-1.2152,-0.7963,-0.3479,-0.325,-0.2011,-0.3177,-0.1375,-0.1033,0,-0.7044,-0.6171,0.1803,-0.1909,-0.6109,-1.7016,-0.9453]},{"id":3147,"tgK":309.15,"scaled":[0.0859,0.3903,-0.4396,1.3181,-0.3479,-0.325,-0.2011,-0.3177,-0.1375,-0.1033,0,-0.0762,-0.6171,0.6667,-0.1909,0.4735,-0.4931,0.3888]},{"id":2913,"tgK":339.15,"scaled":[-0.736,-0.9398,-1.2152,0.2609,-0.9421,2.9692,-0.2011,-0.3177,-0.1375,-0.1033,0,-0.2856,-1.2298,0.6667,-0.1909,1.3418,-1.7016,-0.6404]},{"id":3986,"tgK":469.15,"scaled":[0.5677,0.897,1.3701,0.6133,0.2463,-0.325,-0.2011,-0.3177,-0.1375,-0.1033,0,0.1332,0.9148,-0.306,-0.1909,-0.3066,1.5487,0.7101]},{"id":7327,"tgK":328,"scaled":[-1.3879,-1.1931,-0.8274,-1.5011,-0.9421,-0.325,-0.2011,-0.3177,-0.1375,-0.1033,0,-1.3326,-0.9235,-1.2788,-0.1909,-2.2846,0.5565,-1.4312]},{"id":4606,"tgK":208.15,"scaled":[-0.566,-1.1931,-0.8274,-0.7963,-0.9421,-0.325,4.0687,1.3561,-0.1375,-0.1033,0,0.1332,-0.9235,-1.2788,-0.1909,1.7951,-0.8078,-0.6774]},{"id":6957,"tgK":664.65,"scaled":[0.0575,0.3903,0.9823,-1.5011,1.4347,-0.325,-0.2011,-0.3177,-0.1375,-0.1033,0,-0.7044,0.9148,-1.2788,-0.1909,-1.0413,1.7716,0.035]},{"id":669,"tgK":467.15,"scaled":[0.4543,0.897,0.7238,-0.0915,-0.9421,-0.325,-0.2011,-0.3177,-0.1375,-0.1033,0,0.1332,0.9148,-0.306,-0.1909,-1.2485,0.8522,0.4631]},{"id":3317,"tgK":318.15,"scaled":[-0.3109,-0.5597,-1.2152,1.3181,0.2463,-0.325,-0.2011,-0.3177,-0.1375,-0.1033,0,-0.0762,-0.6171,0.6667,-0.1909,1.5327,-1.7016,-0.2949]},{"id":1529,"tgK":356.15,"scaled":[-0.7077,-0.5597,-1.2152,-0.0915,-0.9421,-0.325,-0.2011,-0.3177,-0.1375,-0.1033,0,-0.7044,-0.6171,-0.306,-0.1909,-0.2606,-1.7016,-0.6736]},{"id":1545,"tgK":232.65,"scaled":[0.0292,0.4536,-1.2152,4.842,-0.9421,-0.325,-0.2011,-0.3177,-0.1375,-0.1033,0,-0.7044,-1.2298,-0.306,-0.1909,3.3915,-1.7016,1.039]},{"id":2949,"tgK":322.15,"scaled":[-1.0761,-1.0664,-0.8274,-0.0915,-0.9421,-0.325,-0.2011,-0.3177,-0.1375,-0.1033,0,-0.9138,-0.9235,-0.7924,-0.1909,0.6165,-0.2715,-1.069]},{"id":75,"tgK":193.15,"scaled":[-0.9628,-0.7498,-1.2152,-1.5011,-0.3479,1.3221,-0.2011,-0.3177,-0.1375,-0.1033,0,-0.9138,-1.2298,-0.306,-0.1909,-1.0047,-1.7016,-0.8957]},{"id":5361,"tgK":427.15,"scaled":[-0.4243,-0.2431,0.336,-1.5011,-0.9421,7.9104,-0.2011,-0.3177,-0.1375,-0.1033,0,-0.7044,0.302,-1.2788,-0.1909,-0.2319,1.5364,-0.0302]},{"id":3250,"tgK":179.15,"scaled":[-1.1045,-0.8764,-1.2152,-0.7963,-0.3479,-0.325,-0.2011,-0.3177,-0.1375,-0.1033,0,-1.1232,-1.2298,-0.7924,-0.1909,-0.0337,-1.7016,-0.9948]},{"id":104,"tgK":459.15,"scaled":[0.2559,0.327,0.336,0.2609,-0.9421,1.3221,-0.2011,-0.3177,-0.1375,-0.1033,0,-0.0762,0.302,1.6395,-0.1909,-0.5892,0.5272,0.2161]},{"id":101,"tgK":488.15,"scaled":[-0.1409,0.0103,0.4653,-0.4439,0.2463,-0.325,-0.2011,-0.3177,-0.1375,-0.1033,0,-0.495,0.302,-0.306,-0.1909,-0.5578,1.2494,-0.1793]},{"id":4767,"tgK":507.15,"scaled":[-0.651,-0.3697,0.2067,-1.1487,-0.9421,-0.325,-0.2011,-0.3177,-0.1375,-0.1033,0,-0.9138,-0.0044,-1.2788,-0.1909,-1.8011,1.7943,-0.7229]},{"id":2426,"tgK":380.15,"scaled":[-0.3109,-0.2431,-0.4396,-0.0915,0.2463,1.3221,-0.2011,-0.3177,-0.1375,-0.1033,0,-0.2856,-0.6171,0.6667,-0.1909,0.3875,-0.1962,-0.1793]},{"id":6884,"tgK":614.15,"scaled":[-0.2259,-0.3697,-0.0518,-0.0915,0.2463,-0.325,-0.2011,-0.3177,-0.1375,-0.1033,0,-0.2856,0.302,0.6667,-0.1909,-0.1088,0.4436,-0.41]},{"id":7218,"tgK":558.4,"scaled":[-0.1692,-0.3697,0.2067,0.2609,0.2463,-0.325,-0.2011,-0.3177,-0.1375,-0.1033,0,-0.2856,0.302,0.6667,-0.1909,0.172,0.8357,-0.3442]},{"id":95,"tgK":363.15,"scaled":[-0.3676,0.0103,-0.4396,-0.4439,-0.9421,-0.325,-0.2011,-0.3177,-0.1375,-0.1033,0,-0.9138,-0.3107,0.6667,-0.1909,-1.0978,-0.1415,-0.2946]},{"id":2385,"tgK":219.15,"scaled":[-0.9061,-0.4964,-1.2152,-0.0915,-0.9421,-0.325,-0.2011,-0.3177,-0.1375,-0.1033,0,-1.1232,-1.2298,-0.306,-0.1909,0.133,-1.7016,-0.6242]},{"id":5231,"tgK":415.15,"scaled":[-0.3676,-0.2431,0.2067,0.2609,-0.9421,-0.325,-0.2011,-0.3177,-0.1375,-0.1033,0,-0.495,-0.0044,-0.306,-0.1909,-0.3066,1.1586,-0.3607]},{"id":6514,"tgK":502.15,"scaled":[2.3249,2.607,2.6628,2.0229,1.4347,-0.325,-0.2011,-0.3177,-0.1375,-0.1033,0,1.5991,2.4466,1.6395,-0.1909,-0.2538,1.1586,2.4232]},{"id":3987,"tgK":453.15,"scaled":[0.511,0.897,1.3701,0.6133,0.2463,-0.325,-0.2011,-0.3177,-0.1375,-0.1033,0,-0.0762,0.9148,-0.306,-0.1909,-0.2606,1.6243,0.7101]},{"id":3764,"tgK":310.15,"scaled":[-0.4526,-0.3064,-0.4396,0.9657,0.2463,-0.325,-0.2011,-0.3177,-0.1375,-0.1033,0,-0.7044,-0.6171,-0.306,-0.1909,1.4813,-0.0515,-0.1631]},{"id":6134,"tgK":435.15,"scaled":[-0.2542,-0.1797,-0.0518,-0.0915,-0.9421,-0.325,-0.2011,-0.3177,-0.1375,-0.1033,0,0.1332,-0.3107,-0.306,-0.1909,-0.8095,0.4799,-0.3771]},{"id":2589,"tgK":283.25,"scaled":[0.1426,0.0736,-0.0518,-0.0915,-0.3479,-0.325,4.0687,-0.3177,-0.1375,-0.1033,0,0.1332,-0.3107,-0.7924,2.2627,-0.1982,0.0615,0.1095]},{"id":130,"tgK":277.15,"scaled":[-0.651,-1.1298,-1.2152,-1.1487,3.8115,1.3221,-0.2011,-0.3177,-0.1375,-0.1033,0,-0.2856,-1.2298,1.1531,-0.1909,2.5506,-1.7016,-0.7228]},{"id":4775,"tgK":438.15,"scaled":[-1.2745,-1.2564,-0.8274,-1.1487,-0.9421,-0.325,-0.2011,-0.3177,5.137,-0.1033,0,-1.1232,-0.9235,-1.2788,-0.1909,0.5535,0.1638,-1.123]},{"id":3811,"tgK":516.15,"scaled":[1.7014,1.5937,1.8226,0.6133,3.2173,-0.325,-0.2011,-0.3177,-0.1375,-0.1033,0,1.1803,1.8339,1.6395,-0.1909,-0.0748,0.924,1.542]},{"id":1290,"tgK":283.15,"scaled":[-0.1975,0.2636,-0.1811,0.2609,-0.9421,-0.325,-0.2011,-0.3177,-0.1375,-0.1033,0,-0.495,-0.3107,-0.306,-0.1909,-0.5011,0.174,0.0347]},{"id":3328,"tgK":398.15,"scaled":[0.1709,0.1369,-0.4396,-0.0915,1.4347,-0.325,-0.2011,-0.3177,-0.1375,-0.1033,0,-0.0762,-0.6171,0.6667,-0.1909,0.0677,-0.5421,0.1007]},{"id":7298,"tgK":350,"scaled":[-1.2745,-1.1298,-0.8274,-1.1487,-0.9421,-0.325,-0.2011,-0.3177,-0.1375,-0.1033,0,-1.1232,-0.9235,-1.2788,-0.1909,-1.3386,0.1638,-1.316]},{"id":6330,"tgK":607.15,"scaled":[-0.1975,0.0103,0.5945,-1.1487,1.4347,-0.325,-0.2011,-0.3177,-0.1375,-0.1033,0,-0.7044,0.6084,-1.2788,-0.1909,-0.5011,1.5806,-0.1957]},{"id":6920,"tgK":331.15,"scaled":[0.2559,1.2136,-0.0518,-0.7963,-0.9421,-0.325,-0.2011,-0.3177,-0.1375,-0.1033,0,-0.2856,-0.0044,-1.2788,-0.1909,-1.7195,-0.03,0.5786]},{"id":1520,"tgK":417.15,"scaled":[-0.4526,-0.6231,-1.2152,-0.0915,-0.9421,-0.325,-0.2011,-0.3177,-0.1375,-0.1033,0,0.1332,-0.3107,-0.306,-0.1909,-0.6109,-1.7016,-0.723]},{"id":3018,"tgK":542.15,"scaled":[0.6527,0.707,0.7238,0.6133,0.2463,-0.325,-0.2011,-0.3177,-0.1375,-0.1033,0,0.5521,0.9148,0.6667,-0.1909,-0.3718,0.6557,0.5618]},{"id":340,"tgK":443.15,"scaled":[-0.1125,-0.1797,-0.0518,0.6133,-0.9421,1.3221,-0.2011,-0.3177,-0.1375,-0.1033,0,0.1332,-0.3107,0.6667,-0.1909,0.0952,0.3095,-0.1135]},{"id":638,"tgK":598.15,"scaled":[0.1992,0.4536,0.9823,-1.1487,1.4347,-0.325,-0.2011,-0.3177,-0.1375,-0.1033,0,-0.495,0.9148,-0.7924,-0.1909,-0.8341,1.54,0.1502]},{"id":3384,"tgK":438.15,"scaled":[2.3249,0.897,0.336,0.9657,2.0289,1.3221,-0.2011,5.3733,-0.1375,-0.1033,0,4.5308,-0.0044,1.1531,2.2627,2.0671,-0.5575,2.4101]},{"id":7121,"tgK":333.95,"scaled":[-1.2745,-1.1931,-0.8274,-1.1487,-0.9421,-0.325,-0.2011,-0.3177,-0.1375,-0.1033,0,-1.1232,-0.9235,-0.7924,-0.1909,-1.3386,0.1638,-1.3654]},{"id":4720,"tgK":491.15,"scaled":[-0.7927,-0.5597,-0.0518,-1.1487,-0.9421,-0.325,-0.2011,-0.3177,-0.1375,-0.1033,0,-0.9138,-0.3107,-1.2788,-0.1909,-1.7407,1.5162,-0.8711]},{"id":1646,"tgK":323.15,"scaled":[0.2276,0.8336,-0.0518,0.6133,-0.9421,-0.325,-0.2011,-0.3177,-0.1375,-0.1033,0,-0.0762,-0.3107,-0.306,-0.1909,-0.5668,-0.008,0.5454]},{"id":3804,"tgK":573.15,"scaled":[0.3693,0.1369,0.336,0.6133,0.8405,-0.325,-0.2011,-0.3177,-0.1375,-0.1033,0,0.3427,0.6084,1.6395,-0.1909,0.133,0.4171,0.1747]},{"id":6733,"tgK":638.15,"scaled":[0.8794,-0.0531,-0.0518,-0.0915,0.2463,-0.325,-0.2011,3.6995,-0.1375,-0.1033,0,2.0179,0.302,0.6667,-0.1909,1.6715,-0.4015,0.7753]},{"id":6042,"tgK":488.15,"scaled":[0.426,0.2003,0.336,0.6133,0.2463,-0.325,-0.2011,-0.3177,-0.1375,-0.1033,0,0.3427,0.302,0.1803,-0.1909,-0.1874,0.366,0.1665]},{"id":1089,"tgK":483.15,"scaled":[-0.651,-0.6231,-0.8274,-0.7963,-0.3479,-0.325,-0.2011,-0.3177,-0.1375,-0.1033,0,-0.2856,-0.6171,-0.306,-0.1909,-0.8341,-0.7482,-0.7971]},{"id":1692,"tgK":319.15,"scaled":[-0.0275,0.1369,-0.0518,1.3181,-0.9421,-0.325,-0.2011,-0.3177,-0.1375,-0.1033,0,-0.0762,-0.3107,0.1803,-0.1909,0.3134,0.2194,0.1334]},{"id":7282,"tgK":246.575,"scaled":[-1.558,-1.5098,-1.2152,-1.1487,-0.9421,-0.325,-0.2011,-0.3177,-0.1375,-0.1033,0,-1.3326,-1.2298,-1.2788,-0.1909,-0.6109,-1.7016,-1.6125]},{"id":4026,"tgK":554.15,"scaled":[1.8431,1.467,1.4994,1.3181,1.4347,-0.325,-0.2011,1.6909,-0.1375,-0.1033,0,2.0179,1.5275,1.6395,-0.1909,0.6601,0.5565,1.8711]},{"id":777,"tgK":468.15,"scaled":[-1.0478,-1.2564,-1.2152,-0.7963,-0.3479,-0.325,-0.2011,-0.3177,-0.1375,-0.1033,0,-0.495,-0.9235,-0.306,-0.1909,-0.179,-1.7016,-1.2913]},{"id":2856,"tgK":372.15,"scaled":[-0.5376,-0.4964,-0.4396,-0.0915,-0.9421,-0.325,-0.2011,-0.3177,-0.1375,-0.1033,0,-0.2856,-0.6171,-0.306,-0.1909,-0.5084,0.0496,-0.6242]},{"id":3572,"tgK":356.15,"scaled":[-0.0558,0.0103,-0.0518,0.6133,0.2463,-0.325,-0.2011,-0.3177,-0.1375,-0.1033,0,-0.2856,0.302,-0.306,-0.1909,0.3528,0.2486,0.0182]},{"id":6591,"tgK":459.15,"scaled":[-0.1125,-0.0531,0.336,-0.0915,-0.9421,1.3221,-0.2011,-0.3177,-0.1375,-0.1033,0,0.1332,-0.0044,-0.306,-0.1909,-0.5847,0.9799,-0.1463]},{"id":1409,"tgK":326.15,"scaled":[0.0575,-0.1797,-0.2457,-0.0915,2.0289,2.9692,-0.2011,-0.3177,-0.1375,-0.1033,0,0.1332,-0.3107,0.6667,-0.1909,1.1346,-0.1693,0.1751]},{"id":2037,"tgK":362.15,"scaled":[-1.3312,-1.1298,-0.8274,-1.1487,-0.9421,-0.325,-0.2011,-0.3177,-0.1375,-0.1033,0,-1.3326,-0.9235,-1.2788,-0.1909,-1.2485,0.3414,-1.316]},{"id":5405,"tgK":268.85,"scaled":[0.9928,0.8336,-0.1811,-0.4439,-0.9421,1.3221,-0.2011,-0.3177,-0.1375,-0.1033,0,2.4367,-0.0044,1.1531,-0.1909,-1.4396,-0.5908,0.4798]},{"id":1315,"tgK":291.15,"scaled":[-0.2542,0.1369,-0.1811,0.2609,-0.9421,-0.325,-0.2011,-0.3177,-0.1375,-0.1033,0,-0.495,-0.3107,-0.306,-0.1909,-0.4407,0.2375,-0.0641]},{"id":2076,"tgK":470.15,"scaled":[-0.9061,-1.0031,-1.2152,-0.0915,-0.9421,-0.325,-0.2011,-0.3177,-0.1375,-0.1033,0,-0.495,-0.9235,-0.306,-0.1909,0.133,-1.7016,-1.0196]},{"id":6293,"tgK":638.15,"scaled":[0.1142,0.517,1.1116,-1.1487,0.2463,-0.325,-0.2011,-0.3177,-0.1375,-0.1033,0,-0.495,0.9148,-1.2788,-0.1909,-1.378,1.8737,0.0844]},{"id":4716,"tgK":329.15,"scaled":[-0.736,-0.7498,-0.4396,-0.7963,-0.9421,-0.325,1.9338,-0.3177,-0.1375,-0.1033,0,-0.495,-0.6171,-1.2788,-0.1909,-0.7304,0.3414,-0.838]},{"id":3648,"tgK":659.15,"scaled":[-0.4243,-0.4964,-0.0518,-0.0915,0.2463,-0.325,-0.2011,-0.3177,-0.1375,-0.1033,0,-0.2856,-0.3107,-0.306,-0.1909,0.1786,0.7269,-0.5089]},{"id":4613,"tgK":153.15,"scaled":[-1.3879,-1.5098,-1.2152,-1.1487,-0.9421,-0.325,1.9338,-0.3177,-0.1375,-0.1033,0,-1.1232,-1.2298,-1.2788,-0.1909,0.0058,-1.7016,-1.4969]},{"id":4438,"tgK":269.15,"scaled":[-0.3109,0.0103,-0.4396,1.6705,-0.9421,-0.325,-0.2011,-0.3177,-0.1375,-0.1033,0,-0.7044,-0.6171,-0.306,-0.1909,1.1509,-0.1962,0.1004]},{"id":39,"tgK":473.15,"scaled":[-0.9344,-0.8764,-0.8274,-1.5011,-0.9421,-0.325,-0.2011,-0.3177,-0.1375,-0.1033,0,-0.495,-0.9235,-0.7924,-0.1909,-2.2846,-0.4758,-1.1841]},{"id":3198,"tgK":316.15,"scaled":[-0.2542,-0.6231,-0.4396,0.6133,1.4347,-0.325,-0.2011,-0.3177,-0.1375,-0.1033,0,-0.2856,-0.6171,0.6667,-0.1909,1.4033,-0.2473,-0.3607]},{"id":2666,"tgK":348.15,"scaled":[0.1426,-0.1797,-0.4396,0.6133,2.6231,-0.325,-0.2011,-0.3177,-0.1375,-0.1033,0,-0.0762,-0.6171,0.6667,-0.1909,1.2921,-0.5262,0.1005]},{"id":19,"tgK":348.15,"scaled":[-1.1612,-1.3831,-1.2152,-1.5011,-0.9421,-0.325,1.9338,-0.3177,-0.1375,-0.1033,0,-0.7044,-1.2298,-0.7924,-0.1909,-1.4788,-1.7016,-1.4639]},{"id":6456,"tgK":483.65,"scaled":[0.3693,0.707,0.9823,-0.0915,-0.9421,-0.325,-0.2011,-0.3177,-0.1375,-0.1033,0,0.3427,0.6084,-0.306,-0.1909,-1.2101,1.2999,0.3149]},{"id":3994,"tgK":618.15,"scaled":[4.1671,3.6837,3.5676,2.0229,4.4057,-0.325,-0.2011,-0.3177,10.4115,-0.1033,0,2.8555,4.5912,2.6122,-0.1909,0.043,0.7595,4.1352]},{"id":5722,"tgK":645.15,"scaled":[0.2276,0.1369,0.336,-0.0915,0.2463,-0.325,-0.2011,-0.3177,-0.1375,-0.1033,0,0.1332,0.6084,0.6667,-0.1909,-0.5668,0.5565,-0.0146]},{"id":1308,"tgK":285.15,"scaled":[-0.0842,0.4536,-0.4396,0.6133,-0.9421,-0.325,-0.2011,-0.3177,-0.1375,-0.1033,0,-0.2856,-0.6171,-0.306,-0.1909,-0.2761,-0.3815,0.2488]},{"id":886,"tgK":353.15,"scaled":[-0.2826,0.0103,-0.4396,0.2609,-0.9421,-0.325,-0.2011,-0.3177,-0.1375,-0.1033,0,-0.7044,-0.3107,0.1803,-0.1909,-0.4089,-0.2222,-0.163]},{"id":2568,"tgK":336.15,"scaled":[-0.9061,-0.7498,-1.2152,-0.7963,0.2463,-0.325,-0.2011,-0.3177,-0.1375,-0.1033,0,-0.7044,-1.2298,-0.306,-0.1909,0.133,-1.7016,-0.8383]},{"id":3797,"tgK":506.15,"scaled":[1.1912,0.9603,1.1116,0.9657,2.6231,-0.325,-0.2011,-0.3177,-0.1375,-0.1033,0,0.9709,1.2211,2.1258,-0.1909,0.2868,0.6386,1.056]},{"id":7146,"tgK":248.525,"scaled":[-1.1895,-0.8131,-1.2152,-0.7963,-0.9421,-0.325,-0.2011,-0.3177,-0.1375,-0.1033,0,-1.3326,-1.2298,-0.7924,-0.1909,-0.6109,-1.7016,-1.003]},{"id":6043,"tgK":503.15,"scaled":[0.341,0.1369,0.336,0.9657,-0.3479,-0.325,-0.2011,-0.3177,-0.1375,-0.1033,0,0.1332,0.302,0.1803,-0.1909,-0.1088,0.4436,0.1252]},{"id":1244,"tgK":473.15,"scaled":[1.3613,0.707,-1.2152,2.7277,2.6231,-0.325,-0.2011,-0.3177,-0.1375,-0.1033,0,2.6461,-0.3107,2.1258,-0.1909,1.0917,-1.7016,1.1875]},{"id":5706,"tgK":636.15,"scaled":[1.3329,0.4536,0.336,0.9657,0.2463,-0.325,-0.2011,3.03,-0.1375,-0.1033,0,2.2273,0.9148,0.6667,-0.1909,1.3103,-0.2093,1.2119]},{"id":6713,"tgK":396.15,"scaled":[0.3693,0.0736,-0.4396,-0.0915,0.2463,-0.325,-0.2011,1.6909,-0.1375,-0.1033,0,0.7615,-0.0044,0.6667,-0.1909,0.9389,-0.6423,0.4051]},{"id":96,"tgK":389.15,"scaled":[-0.4243,-0.1164,-0.4396,-0.4439,-0.9421,-0.325,-0.2011,-0.3177,-0.1375,-0.1033,0,-0.9138,-0.3107,0.6667,-0.1909,-1.053,-0.0826,-0.3935]},{"id":6453,"tgK":426.15,"scaled":[0.1992,0.4536,0.7238,-0.0915,-0.9421,-0.325,-0.2011,-0.3177,-0.1375,-0.1033,0,0.3427,0.302,-0.306,-0.1909,-1.1242,1.1586,0.1172]},{"id":6663,"tgK":508.15,"scaled":[0.8511,0.9603,1.1116,0.9657,0.2463,-0.325,-0.2011,-0.3177,-0.1375,-0.1033,0,0.5521,1.2211,0.6667,-0.1909,-0.2864,0.9251,0.8254]},{"id":6569,"tgK":554.15,"scaled":[1.1062,0.897,1.4994,1.3181,-0.9421,4.6162,-0.2011,-0.3177,-0.1375,-0.1033,0,1.1803,0.9148,1.6395,-0.1909,-0.0478,1.1052,1.1223]},{"id":6327,"tgK":483.15,"scaled":[0.511,0.0736,0.5299,0.2609,-0.3479,1.3221,-0.2011,1.6909,-0.1375,-0.1033,0,0.9709,0.302,-0.306,-0.1909,1.0045,0.5433,0.5452]},{"id":4919,"tgK":542.65,"scaled":[0.0575,0.327,0.7238,-0.0915,-0.9421,-0.325,-0.2011,-0.3177,-0.1375,-0.1033,0,-0.2856,0.6084,-0.306,-0.1909,-1.0413,1.3629,0.0183]},{"id":4382,"tgK":261.15,"scaled":[-0.8211,-0.3064,-0.4396,-0.7963,-0.9421,-0.325,-0.2011,-0.3177,-0.1375,-0.1033,0,-1.1232,-0.6171,-1.2788,-0.1909,-1.1688,0.4986,-0.6076]},{"id":3009,"tgK":537.15,"scaled":[1.3046,1.4037,1.1116,0.6133,0.2463,-0.325,-0.2011,-0.3177,-0.1375,-0.1033,0,1.5991,1.2211,0.6667,-0.1909,-0.7577,0.5565,1.1055]},{"id":3527,"tgK":353.15,"scaled":[-0.9628,-0.9398,-0.892,-0.7963,0.8405,-0.325,-0.2011,-0.3177,-0.1375,-0.1033,0,-0.9138,-0.9235,-0.306,-0.1909,0.9152,-0.6501,-0.9289]},{"id":1067,"tgK":276.55,"scaled":[-1.4446,-1.5098,-1.2152,-0.7963,-0.9421,-0.325,-0.2011,-0.3177,-0.1375,-0.1033,0,-1.1232,-1.2298,-0.7924,-0.1909,0.2752,-1.7016,-1.5467]},{"id":6306,"tgK":535.15,"scaled":[2.9201,2.227,1.8872,0.6133,0.2463,-0.325,-0.2011,3.6995,-0.1375,-0.1033,0,3.6932,2.1402,0.6667,-0.1909,0.2602,0.3056,2.6863]},{"id":2831,"tgK":387.15,"scaled":[-0.1409,-0.0531,-0.0518,-0.0915,0.2463,-0.325,-0.2011,-0.3177,-0.1375,-0.1033,0,0.1332,-0.3107,-0.306,-0.1909,-0.2124,0.3414,-0.1629]},{"id":2932,"tgK":282.75,"scaled":[-1.2462,-1.2564,-0.8274,-0.7963,-0.9421,-0.325,-0.2011,-0.3177,-0.1375,3.4411,0,-1.1232,-0.9235,-1.2788,-0.1909,0.4352,0.086,-1.0202]},{"id":673,"tgK":495.15,"scaled":[1.3896,1.3403,1.4994,1.6705,0.2463,-0.325,-0.2011,-0.3177,-0.1375,-0.1033,0,1.1803,1.5275,2.1258,-0.1909,-0.2389,0.8653,1.2536]},{"id":1000,"tgK":363.15,"scaled":[-0.0558,0.2636,-0.0518,0.6133,-0.9421,-0.325,-0.2011,-0.3177,-0.1375,-0.1033,0,-0.2856,-0.3107,-0.306,-0.1909,-0.3066,0.2486,0.1006]},{"id":74,"tgK":220.15,"scaled":[-1.2462,-0.8764,-1.2152,-1.5011,-0.9421,-0.325,-0.2011,-0.3177,-0.1375,-0.1033,0,-1.3326,-1.2298,-0.306,-0.1909,-2.2846,-1.7016,-1.1841]},{"id":841,"tgK":488.15,"scaled":[0.3976,0.3903,-0.0518,0.6133,0.2463,-0.325,-0.2011,-0.3177,-0.1375,-0.1033,0,0.1332,0.9148,0.6667,-0.1909,-0.1618,-0.132,0.3147]},{"id":7334,"tgK":337,"scaled":[-0.9061,-0.8764,-0.5689,-0.0915,-0.9421,-0.325,-0.2011,-0.3177,-0.1375,-0.1033,0,-0.9138,-0.6171,-0.306,-0.1909,0.133,0.2847,-0.9207]},{"id":1076,"tgK":236.05,"scaled":[-1.3596,-1.3831,-1.2152,-0.4439,-0.9421,-0.325,-0.2011,-0.3177,-0.1375,-0.1033,0,-1.1232,-1.2298,-0.7924,-0.1909,0.9792,-1.7016,-1.382]},{"id":3442,"tgK":306.15,"scaled":[-0.3676,-0.9398,-1.2152,-0.0915,0.2463,-0.325,-0.2011,2.3604,-0.1375,-0.1033,0,0.5521,-1.2298,-0.306,-0.1909,3.2539,-1.7016,-0.2293]},{"id":696,"tgK":495.15,"scaled":[1.3896,0.707,0.7238,0.6133,0.2463,-0.325,-0.2011,2.6952,-0.1375,-0.1033,0,2.2273,0.9148,1.1531,-0.1909,0.8769,0.1319,1.2655]},{"id":7107,"tgK":348.575,"scaled":[-1.0195,-1.3198,-1.2152,-0.7963,-0.9421,-0.325,-0.2011,1.0214,-0.1375,-0.1033,0,-0.2856,-1.2298,-0.7924,-0.1909,1.7951,-1.7016,-1.0856]},{"id":4578,"tgK":244.65,"scaled":[-0.5943,-1.1298,-0.8274,-1.1487,-0.9421,-0.325,4.0687,1.0214,-0.1375,-0.1033,0,0.1332,-0.9235,-1.2788,-0.1909,0.956,-0.7888,-0.772]},{"id":4341,"tgK":283.65,"scaled":[-0.8494,-0.6231,-0.8274,-0.0915,-0.9421,-0.325,-0.2011,-0.3177,-0.1375,-0.1033,0,-0.9138,-0.9235,-0.306,-0.1909,0.0058,-0.5726,-0.723]},{"id":4567,"tgK":221.15,"scaled":[0.3693,-0.3697,-0.4396,0.2609,-0.9421,-0.325,10.4735,-0.3177,-0.1375,-0.1033,0,0.9709,-0.6171,-1.2788,-0.1909,0.4016,-0.6423,0.1185]},{"id":3491,"tgK":271.15,"scaled":[-0.3393,-0.8764,-1.2152,-0.0915,0.2463,-0.325,-0.2011,2.3604,-0.1375,-0.1033,0,0.5521,-1.2298,-0.306,-0.1909,3.155,-1.7016,-0.1799]},{"id":5463,"tgK":619.15,"scaled":[0.9645,0.4536,0.336,-0.0915,0.2463,-0.325,-0.2011,1.6909,-0.1375,-0.1033,0,1.8085,0.6084,0.6667,-0.1909,0.2752,-0.0191,0.7016]},{"id":7183,"tgK":260.05,"scaled":[-1.2179,-1.0031,-0.9567,-1.5011,-0.9421,1.3221,-0.2011,-0.3177,-0.1375,-0.1033,0,-1.1232,-0.9235,-1.2788,-0.1909,-1.4143,-0.5575,-1.151]},{"id":3484,"tgK":345.15,"scaled":[-0.8494,-0.7498,-0.8274,-0.7963,1.4347,-0.325,-0.2011,-0.3177,-0.1375,-0.1033,0,-0.9138,-0.9235,-0.306,-0.1909,1.1509,-0.5726,-0.723]},{"id":5636,"tgK":643.15,"scaled":[0.6811,1.277,1.8872,-1.5011,0.2463,-0.325,-0.2011,-0.3177,-0.1375,-0.1033,0,-0.2856,1.5275,-1.2788,-0.1909,-1.8116,2.0292,0.6116]},{"id":3251,"tgK":189.15,"scaled":[-1.0478,-0.7498,-1.2152,-0.7963,-0.3479,-0.325,-0.2011,-0.3177,-0.1375,-0.1033,0,-1.1232,-1.2298,-0.7924,-0.1909,-0.179,-1.7016,-0.8959]},{"id":1060,"tgK":444.15,"scaled":[-0.3676,-0.2431,-0.0518,-0.7963,0.2463,-0.325,-0.2011,-0.3177,-0.1375,-0.1033,0,-0.2856,-0.3107,-0.306,-0.1909,-0.7022,0.6386,-0.4429]},{"id":7173,"tgK":566.9,"scaled":[0.0575,0.0103,0.336,0.6133,0.2463,-0.325,-0.2011,-0.3177,-0.1375,-0.1033,0,-0.2856,0.6084,0.6667,-0.1909,0.2021,0.75,0.0182]},{"id":424,"tgK":489.57,"scaled":[-0.3393,-0.1797,0.336,-1.1487,1.4347,-0.325,-0.2011,-0.3177,-0.1375,-0.1033,0,-0.495,-0.0044,-0.306,-0.1909,-0.3419,1.3629,-0.344]},{"id":3255,"tgK":253.55,"scaled":[-0.2542,0.0103,-1.2152,3.4325,-0.3479,-0.325,-0.2011,-0.3177,-0.1375,-0.1033,0,-1.1232,-0.6171,-0.7924,-0.1909,3.2472,-1.7016,0.4873]},{"id":5316,"tgK":393.15,"scaled":[-0.3676,-0.3697,-0.0518,0.9657,-0.9421,-0.325,-0.2011,-0.3177,-0.1375,-0.1033,0,-0.495,-0.3107,0.6667,-0.1909,0.4846,0.6386,-0.3278]},{"id":5115,"tgK":513.15,"scaled":[0.6244,0.7703,0.7238,0.6133,-0.9421,1.3221,-0.2011,-0.3177,-0.1375,-0.1033,0,0.9709,0.302,0.1803,-0.1909,-0.5923,0.6819,0.6279]},{"id":1546,"tgK":318.15,"scaled":[-0.651,-0.4331,-0.4396,-0.0915,-0.9421,-0.325,-0.2011,-0.3177,-0.1375,-0.1033,0,-0.7044,-0.6171,-0.306,-0.1909,-0.3505,0.2052,-0.5748]},{"id":4912,"tgK":525.15,"scaled":[0.0575,0.327,0.7238,0.2609,-0.9421,-0.325,-0.2011,-0.3177,-0.1375,-0.1033,0,-0.2856,0.6084,-0.306,-0.1909,-0.7304,1.3629,0.0842]},{"id":6802,"tgK":527.15,"scaled":[0.7661,0.327,0.336,0.6133,0.2463,-0.325,-0.2011,1.6909,-0.1375,-0.1033,0,1.1803,0.6084,0.6667,-0.1909,0.9219,0.1049,0.7344]},{"id":4989,"tgK":493.15,"scaled":[1.8147,1.7837,1.8872,2.0229,2.6231,-0.325,-0.2011,-0.3177,-0.1375,-0.1033,0,1.1803,1.8339,1.6395,4.7164,0.3528,0.8986,1.896]},{"id":5158,"tgK":452.15,"scaled":[-0.3676,-0.2431,0.2067,0.2609,-0.9421,-0.325,-0.2011,-0.3177,-0.1375,-0.1033,0,-0.495,-0.0044,-0.306,-0.1909,-0.3066,1.1586,-0.3607]},{"id":804,"tgK":601.15,"scaled":[0.1992,0.2003,-1.2152,-0.0915,-0.9421,-0.325,-0.2011,-0.3177,-0.1375,-0.1033,0,0.1332,1.2211,-0.306,-0.1909,-1.1242,-1.7016,-0.0805]},{"id":6561,"tgK":431.15,"scaled":[0.0292,0.0736,0.6592,0.6133,-0.3479,1.3221,-0.2011,-0.3177,-0.1375,-0.1033,0,-0.0762,0.302,-0.306,-0.1909,0.2381,1.3037,0.1419]},{"id":6788,"tgK":535.15,"scaled":[1.1062,0.0736,-0.0518,0.2609,0.2463,-0.325,-0.2011,4.0343,-0.1375,-0.1033,0,2.4367,0.302,0.6667,-0.1909,1.7824,-0.4987,1.0182]},{"id":3546,"tgK":453.15,"scaled":[-1.0478,-1.0664,-0.8274,-0.7963,0.2463,-0.325,-0.2011,-0.3177,-0.1375,-0.1033,0,-0.9138,-0.9235,-0.306,-0.1909,0.5229,-0.3176,-1.0854]},{"id":2495,"tgK":185.15,"scaled":[-0.9344,-1.0031,-1.2152,-1.1487,-0.9421,-0.325,4.0687,-0.3177,-0.1375,-0.1033,0,-0.7044,-1.2298,-1.2788,-0.1909,-0.4196,-1.7016,-0.9859]},{"id":597,"tgK":524.15,"scaled":[0.6527,0.517,0.7238,0.9657,0.2463,-0.325,-0.2011,-0.3177,-0.1375,-0.1033,0,0.5521,0.9148,1.6395,-0.1909,-0.1327,0.6557,0.4794]},{"id":5127,"tgK":533.15,"scaled":[0.9645,0.7703,1.1116,1.6705,0.2463,1.3221,-0.2011,-0.3177,-0.1375,-0.1033,0,0.7615,1.2211,1.6395,-0.1909,0.2752,0.8221,0.9407]},{"id":2764,"tgK":536.15,"scaled":[1.9848,1.3403,1.2409,1.6705,2.6231,-0.325,-0.2011,1.6909,-0.1375,-0.1033,0,2.2273,1.5275,1.6395,-0.1909,1.0265,0.2674,1.9534]},{"id":2960,"tgK":223.85,"scaled":[-1.4729,-1.4464,-1.2152,-1.5011,-0.9421,1.3221,-0.2011,-0.3177,-0.1375,-0.1033,0,-1.1232,-1.2298,-1.2788,-0.1909,-0.9247,-1.7016,-1.497]},{"id":278,"tgK":505.65,"scaled":[0.596,0.517,0.7238,0.6133,0.2463,1.3221,-0.2011,-0.3177,-0.1375,-0.1033,0,0.9709,0.302,0.6667,-0.1909,-0.0843,0.7087,0.5455]},{"id":5641,"tgK":668.15,"scaled":[0.1142,0.517,1.1116,-1.5011,0.2463,-0.325,-0.2011,-0.3177,-0.1375,-0.1033,0,-0.495,0.9148,-1.2788,-0.1909,-1.6802,1.8737,0.0185]},{"id":2981,"tgK":218.15,"scaled":[-1.2179,-1.0664,-1.2152,-1.5011,-0.9421,-0.325,1.9338,-0.3177,-0.1375,-0.1033,0,-1.1232,-1.2298,-1.2788,-0.1909,-1.4143,-1.7016,-1.2168]},{"id":5327,"tgK":458.15,"scaled":[1.1345,0.897,1.1116,1.3181,0.2463,-0.325,-0.2011,1.6909,-0.1375,-0.1033,0,0.9709,1.2211,0.6667,-0.1909,0.9389,0.6819,1.3109]},{"id":5808,"tgK":626.15,"scaled":[0.2843,0.0736,0.5945,-0.0915,1.4347,-0.325,-0.2011,-0.3177,-0.1375,-0.1033,0,0.1332,0.6084,0.6667,2.2627,-0.053,0.8653,0.0512]},{"id":1462,"tgK":296.15,"scaled":[-0.3109,0.327,-0.4396,-0.7963,-0.3479,-0.325,-0.2011,-0.3177,-0.1375,-0.1033,0,-0.7044,-0.3107,-0.7924,-0.1909,-1.1394,-0.1962,-0.0557]},{"id":1452,"tgK":240.15,"scaled":[-0.5093,-0.3064,-0.8274,1.3181,-0.9421,-0.325,-0.2011,-0.3177,-0.1375,-0.1033,0,-0.495,-0.9235,-0.7924,-0.1909,1.1967,-0.8435,-0.2125]},{"id":4235,"tgK":368.15,"scaled":[-1.3879,-1.3831,-1.2152,-1.1487,-0.9421,-0.325,-0.2011,-0.3177,5.137,-0.1033,0,-1.1232,-1.2298,-1.2788,-0.1909,1.1509,-1.7016,-1.2219]},{"id":835,"tgK":338.25,"scaled":[-1.5013,-1.4464,-1.2152,-1.5011,-0.9421,-0.325,-0.2011,-0.3177,-0.1375,-0.1033,0,-1.3326,-0.9235,-1.2788,-0.1909,-2.2846,-1.7016,-1.6289]},{"id":1926,"tgK":387.15,"scaled":[-0.9911,-0.8764,-0.8274,-1.1487,-0.3479,-0.325,-0.2011,-0.3177,-0.1375,-0.1033,0,-0.9138,-0.6171,-0.7924,-0.1909,-0.9659,-0.4015,-1.0606]},{"id":6564,"tgK":511.15,"scaled":[0.0859,0.2003,0.7238,-0.0915,-0.9421,-0.325,-0.2011,-0.3177,-0.1375,-0.1033,0,0.1332,0.302,-0.306,-0.1909,-1.0588,1.3198,-0.0805]},{"id":6699,"tgK":671.15,"scaled":[-1.2462,-1.3198,-0.7628,-1.5011,0.2463,-0.325,-0.2011,-0.3177,-0.1375,-0.1033,0,-1.3326,-0.6171,-1.2788,-0.1909,-0.4714,0.384,-1.4148]},{"id":4791,"tgK":441.15,"scaled":[0.0292,0.2636,0.7238,-0.0915,-0.9421,-0.325,-0.2011,-0.3177,-0.1375,-0.1033,0,-0.2856,0.302,-0.306,-0.1909,-1.0233,1.4074,-0.0311]},{"id":3952,"tgK":562.65,"scaled":[1.1062,1.4037,1.8872,0.6133,1.4347,-0.325,-0.2011,-0.3177,-0.1375,-0.1033,0,0.3427,1.5275,0.1803,-0.1909,-0.2511,1.5061,1.2208]},{"id":7159,"tgK":294.575,"scaled":[-1.0195,-1.0031,-0.8274,-0.0915,-0.9421,-0.325,-0.2011,-0.3177,-0.1375,-0.1033,0,-0.9138,-0.9235,-0.306,-0.1909,0.4352,-0.3609,-1.0196]},{"id":5278,"tgK":473.15,"scaled":[1.0495,1.1503,1.4994,1.3181,0.2463,-0.325,-0.2011,-0.3177,-0.1375,-0.1033,0,0.5521,1.5275,0.6667,-0.1909,-0.2124,1.1586,1.0395]},{"id":3943,"tgK":442.15,"scaled":[-0.3959,-0.2431,0.336,-1.1487,1.4347,-0.325,-0.2011,-0.3177,-0.1375,-0.1033,0,-0.7044,-0.0044,-0.7924,-0.1909,-0.2699,1.4764,-0.3934]},{"id":1163,"tgK":374.15,"scaled":[0.7377,0.4536,0.336,1.3181,0.2463,2.9692,-0.2011,-0.3177,-0.1375,-0.1033,0,1.3897,-0.0044,0.6667,-0.1909,0.4931,0.1241,0.7597]},{"id":6768,"tgK":563.15,"scaled":[0.6811,0.2636,0.336,-0.0915,0.2463,-0.325,-0.2011,1.6909,-0.1375,-0.1033,0,1.1803,0.6084,0.6667,-0.1909,0.5535,0.1638,0.5533]},{"id":3985,"tgK":491.15,"scaled":[1.1062,1.277,1.7579,1.3181,0.2463,1.3221,-0.2011,-0.3177,-0.1375,-0.1033,0,0.7615,1.2211,0.6667,-0.1909,-0.0478,1.3725,1.2703]},{"id":756,"tgK":286.65,"scaled":[-1.4446,-1.5098,-1.2152,-0.7963,-0.9421,-0.325,-0.2011,-0.3177,-0.1375,-0.1033,0,-1.1232,-1.2298,-0.7924,-0.1909,0.2752,-1.7016,-1.5467]},{"id":4678,"tgK":334.45,"scaled":[0.511,0.517,0.336,1.6705,-0.9421,-0.325,1.9338,-0.3177,-0.1375,-0.1033,0,0.5521,-0.0044,-0.306,-0.1909,0.2454,0.2939,0.6114]},{"id":4929,"tgK":525.35,"scaled":[-0.4526,-0.4331,-0.0518,0.2609,-0.9421,-0.325,-0.2011,-0.3177,-0.1375,-0.1033,0,-0.495,-0.0044,-0.306,-0.1909,-0.1925,0.7736,-0.5089]},{"id":3607,"tgK":438.15,"scaled":[0.2559,0.327,0.4006,0.6133,1.4347,-0.325,-0.2011,-0.3177,-0.1375,-0.1033,0,-0.2856,0.302,-0.306,-0.1909,0.5412,0.62,0.3806]},{"id":3411,"tgK":532.15,"scaled":[1.0212,0.8336,0.7238,0.6133,1.4347,-0.325,-0.2011,-0.3177,-0.1375,-0.1033,0,1.1803,0.9148,1.6395,-0.1909,-0.1925,0.3611,0.776]},{"id":1822,"tgK":346.65,"scaled":[-1.1612,-1.1298,-0.8274,-0.7963,-0.9421,-0.325,-0.2011,-0.3177,-0.1375,-0.1033,0,-0.9138,-0.9235,-0.7924,-0.1909,-0.6729,-0.1126,-1.2501]},{"id":5613,"tgK":468.15,"scaled":[0.6811,0.327,-0.0518,0.2609,0.2463,-0.325,-0.2011,1.6909,-0.1375,-0.1033,0,1.1803,0.302,0.6667,-0.1909,0.79,-0.3026,0.6686]},{"id":6824,"tgK":591.15,"scaled":[0.511,0.3903,0.7238,0.6133,0.2463,-0.325,-0.2011,-0.3177,-0.1375,-0.1033,0,0.3427,0.9148,1.1531,-0.1909,-0.2606,0.7928,0.3147]},{"id":2870,"tgK":289.15,"scaled":[-0.6794,-0.4964,-0.8274,-0.0915,-0.9421,-0.325,-0.2011,-0.3177,-0.1375,-0.1033,0,-0.495,-0.9235,-0.306,-0.1909,-0.3066,-0.7265,-0.6242]},{"id":7319,"tgK":311.5,"scaled":[-1.2745,-1.0031,-1.2152,-1.1487,-0.3479,-0.325,-0.2011,-0.3177,-0.1375,-0.1033,0,-1.3326,-1.2298,-0.7924,-0.1909,-0.3926,-1.7016,-1.1595]},{"id":3932,"tgK":598.15,"scaled":[2.2682,2.1637,2.275,2.0229,2.0289,-0.325,-0.2011,-0.3177,-0.1375,-0.1033,0,1.5991,2.4466,2.1258,-0.1909,-0.0794,0.9074,2.1349]},{"id":2338,"tgK":347.15,"scaled":[0.2276,0.3903,-0.4396,1.3181,0.2463,-0.325,-0.2011,-0.3177,-0.1375,-0.1033,0,-0.0762,-0.0044,0.6667,-0.1909,0.5783,-0.5726,0.4464]},{"id":6843,"tgK":453.15,"scaled":[1.9281,1.657,1.8226,0.6133,0.8405,-0.325,-0.2011,1.6909,-0.1375,-0.1033,0,2.0179,1.8339,0.6667,-0.1909,0.1152,0.7696,1.83]},{"id":1797,"tgK":332.15,"scaled":[-1.1612,-1.3198,-1.2152,-0.7963,-0.9421,-0.325,-0.2011,-0.3177,7.7742,-0.1033,0,-0.7044,-1.2298,-0.7924,-0.1909,1.7447,-1.7016,-0.9607]},{"id":4537,"tgK":323.15,"scaled":[-0.2826,-0.1164,-0.0518,0.6133,-0.9421,-0.325,-0.2011,-0.3177,-0.1375,-0.1033,0,-0.495,-0.3107,-0.306,-0.1909,-0.0337,0.5175,-0.196]},{"id":815,"tgK":606.15,"scaled":[-0.1125,0.2636,0.2067,-0.7963,-0.3479,-0.325,-0.2011,-0.3177,-0.1375,-0.1033,0,-0.495,0.6084,-0.7924,-0.1909,-1.2647,0.7564,-0.1051]},{"id":1745,"tgK":322.4,"scaled":[-1.1612,-1.0664,-0.8274,-1.1487,-0.9421,-0.325,-0.2011,-0.3177,-0.1375,-0.1033,0,-0.9138,-0.9235,-0.7924,-0.1909,-1.4788,-0.1126,-1.2665]},{"id":312,"tgK":413.15,"scaled":[1.8431,1.3403,0.5945,0.9657,1.4347,1.3221,-0.2011,2.0257,-0.1375,-0.1033,0,2.0179,0.6084,1.6395,7.17,0.8237,-0.1962,1.9165]},{"id":6975,"tgK":561.15,"scaled":[0.3693,0.7703,1.3701,-1.5011,1.4347,1.3221,-0.2011,-0.3177,-0.1375,-0.1033,0,-0.495,1.2211,-1.2788,-0.1909,-0.9415,1.8296,0.4635]},{"id":7365,"tgK":478.15,"scaled":[0.3976,0.3903,0.7238,0.6133,0.2463,-0.325,-0.2011,-0.3177,-0.1375,-0.1033,0,0.1332,0.9148,0.6667,-0.1909,-0.1618,0.9145,0.3147]},{"id":3021,"tgK":542.15,"scaled":[1.6163,1.5303,1.1116,0.6133,2.6231,-0.325,-0.2011,-0.3177,-0.1375,-0.1033,0,1.5991,1.2211,2.1258,-0.1909,-0.1958,0.3578,1.435]},{"id":654,"tgK":503.15,"scaled":[0.6527,0.8336,1.3055,-0.0915,0.2463,-0.325,-0.2011,-0.3177,-0.1375,-0.1033,0,0.1332,0.9148,-0.306,-0.1909,-0.85,1.3629,0.529]},{"id":33,"tgK":443.15,"scaled":[-1.0195,-1.0664,-1.2152,-1.5011,-0.9421,-0.325,1.9338,-0.3177,-0.1375,-0.1033,0,-0.7044,-1.2298,-0.7924,-0.1909,-1.6047,-1.7016,-1.2168]},{"id":2885,"tgK":392.15,"scaled":[-0.1692,-0.2431,-0.0518,0.2609,0.8405,-0.325,-0.2011,-0.3177,-0.1375,-0.1033,0,-0.2856,-0.3107,0.1803,2.2627,0.5229,0.3744,-0.1877]},{"id":86,"tgK":513.15,"scaled":[1.6163,1.7837,1.2409,-0.7963,2.6231,2.9692,-0.2011,-0.3177,-0.1375,-0.1033,0,0.7615,1.2211,2.1258,4.7164,-0.5439,0.4722,1.6332]},{"id":3745,"tgK":313.15,"scaled":[-0.4526,-0.4331,-0.1811,0.2609,0.2463,-0.325,-0.2011,-0.3177,-0.1375,-0.1033,0,-0.495,-0.3107,-0.306,-0.1909,0.6444,0.4986,-0.3936]},{"id":620,"tgK":546.15,"scaled":[0.6244,0.4536,0.7238,0.6133,0.2463,-0.325,-0.2011,-0.3177,-0.1375,-0.1033,0,0.5521,0.9148,1.6395,-0.1909,-0.3505,0.6819,0.3642]},{"id":6597,"tgK":453.15,"scaled":[0.0008,0.0736,0.336,-0.0915,-0.9421,1.3221,-0.2011,-0.3177,-0.1375,-0.1033,0,0.3427,-0.0044,-0.306,-0.1909,-0.6847,0.8221,-0.0474]},{"id":2406,"tgK":383.15,"scaled":[-0.8211,-0.5597,-0.8274,-0.7963,0.2463,-0.325,-0.2011,-0.3177,-0.1375,-0.1033,0,-0.9138,-0.9235,-0.306,-0.1909,-0.053,-0.6015,-0.69]},{"id":3335,"tgK":485.15,"scaled":[1.0495,0.707,-0.3103,0.2609,2.6231,2.9692,-0.2011,-0.3177,-0.1375,-0.1033,0,0.7615,0.6084,2.1258,4.7164,0.4093,-0.7482,0.9905]},{"id":5117,"tgK":688.15,"scaled":[1.4179,1.277,1.8872,0.6133,1.4347,1.3221,-0.2011,-0.3177,-0.1375,-0.1033,0,0.5521,2.4466,0.6667,-0.1909,-0.2563,1.2071,1.2539]},{"id":6411,"tgK":420.15,"scaled":[1.3613,1.7837,1.8872,0.6133,0.2463,-0.325,-0.2011,-0.3177,-0.1375,-0.1033,0,1.3897,1.2211,-0.306,-0.1909,-0.784,1.2573,1.402]},{"id":2088,"tgK":373.15,"scaled":[-0.9911,-1.2564,-1.2152,-0.0915,-0.3479,-0.325,-0.2011,-0.3177,-0.1375,-0.1033,0,-0.7044,-0.9235,0.6667,-0.1909,1.0121,-1.7016,-1.1596]},{"id":1632,"tgK":251.15,"scaled":[-0.9061,-1.3198,-1.2152,-0.7963,-0.9421,-0.325,-0.2011,1.6909,-0.1375,-0.1033,0,-0.0762,-1.2298,-0.7924,-0.1909,2.5506,-1.7016,-0.9293]},{"id":3160,"tgK":290.15,"scaled":[0.1709,0.517,-0.4396,1.6705,-0.3479,-0.325,-0.2011,-0.3177,-0.1375,-0.1033,0,-0.0762,-0.6171,0.6667,-0.1909,0.6557,-0.5421,0.5535]},{"id":723,"tgK":430.15,"scaled":[-1.3312,-1.3831,-1.2152,-0.7963,-0.9421,-0.325,-0.2011,-0.3177,-0.1375,-0.1033,0,-0.9138,-1.2298,-0.7924,-0.1909,-0.2124,-1.7016,-1.4478]},{"id":5387,"tgK":658.15,"scaled":[0.0008,-0.1797,-0.0518,-0.0915,0.2463,-0.325,-0.2011,-0.3177,-0.1375,-0.1033,0,0.1332,0.302,0.6667,-0.1909,-0.3648,0.1912,-0.2618]},{"id":1823,"tgK":330.15,"scaled":[-1.1328,-1.0664,-0.8274,-0.7963,-0.9421,-0.325,-0.2011,-0.3177,-0.1375,-0.1033,0,-0.9138,-0.9235,-0.7924,-0.1909,-0.7304,-0.1693,-1.2007]},{"id":916,"tgK":385.15,"scaled":[1.0495,1.5303,-0.1811,-1.1487,0.2463,6.2633,-0.2011,-0.3177,-0.1375,-0.1033,0,0.3427,0.302,1.1531,4.7164,-0.8341,-0.612,1.4029]},{"id":183,"tgK":408.15,"scaled":[0.1426,0.517,1.047,-0.0915,0.2463,-0.325,-0.2011,-0.3177,-0.1375,-0.1033,0,-0.2856,0.6084,-0.7924,-0.1909,-0.4962,1.7268,0.2819]},{"id":2462,"tgK":325.15,"scaled":[-0.7644,-0.1797,-1.2152,-0.7963,0.2463,-0.325,-0.2011,-0.3177,-0.1375,-0.1033,0,-1.1232,-1.2298,-0.306,-0.1909,-0.1618,-1.7016,-0.3935]},{"id":3881,"tgK":514.15,"scaled":[1.503,1.467,1.1116,-0.0915,0.2463,-0.325,-0.2011,1.6909,-0.1375,-0.1033,0,1.8085,1.5275,-0.306,-0.1909,-0.1267,0.4258,1.4924]},{"id":4402,"tgK":290.15,"scaled":[0.1142,0.1369,-0.5689,2.0229,0.2463,-0.325,-0.2011,-0.3177,-0.1375,-0.1033,0,-0.2856,-0.3107,1.6395,-0.1909,1.3418,-0.7085,0.3804]},{"id":4710,"tgK":209.75,"scaled":[-0.8778,-0.7498,-1.2152,0.9657,-0.9421,-0.325,1.9338,-0.3177,-0.1375,-0.1033,0,-1.1232,-1.2298,-1.2788,-0.1909,2.4199,-1.7016,-0.5088]},{"id":4093,"tgK":577.15,"scaled":[0.8228,0.517,0.8531,-0.0915,3.2173,-0.325,-0.2011,-0.3177,-0.1375,-0.1033,0,0.1332,1.2211,0.6667,-0.1909,0.1828,0.6574,0.5702]},{"id":1183,"tgK":324.15,"scaled":[-1.1612,-1.2564,-1.2152,-0.7963,-0.3479,-0.325,-0.2011,-0.3177,-0.1375,-0.1033,0,-0.7044,-1.2298,-0.7924,2.2627,0.133,-1.7016,-1.2913]},{"id":4298,"tgK":351.65,"scaled":[-0.6794,-1.0031,-1.2152,2.0229,-0.9421,-0.325,-0.2011,-0.3177,-0.1375,-0.1033,0,-0.495,-0.6171,-0.306,-0.1909,2.6605,-1.7016,-0.6245]},{"id":6680,"tgK":632.15,"scaled":[-0.1692,-0.4964,0.0775,-0.0915,1.4347,1.3221,-0.2011,-0.3177,-0.1375,-0.1033,0,-0.2856,0.302,0.6667,-0.1909,0.8739,0.605,-0.2616]},{"id":4730,"tgK":592.15,"scaled":[0.3693,0.0103,0.336,0.6133,-0.9421,-0.325,-0.2011,-0.3177,-0.1375,14.0742,0,0.5521,0.302,0.1803,-0.1909,0.4016,0.4171,1.2181]},{"id":7284,"tgK":207,"scaled":[-1.4729,-1.3198,-1.2152,-1.1487,-0.9421,-0.325,-0.2011,-0.3177,-0.1375,-0.1033,0,-1.3326,-1.2298,-1.2788,-0.1909,-0.9247,-1.7016,-1.4642]},{"id":4166,"tgK":304.15,"scaled":[0.3976,0.7703,-0.0518,2.0229,-0.9421,-0.325,-0.2011,-0.3177,-0.1375,-0.1033,0,0.1332,-0.3107,0.6667,-0.1909,0.3689,-0.132,0.7593]},{"id":4115,"tgK":404.65,"scaled":[-0.3676,-0.1797,-0.0518,-0.0915,0.2463,-0.325,-0.2011,-0.3177,-0.1375,-0.1033,0,-0.495,-0.3107,-0.306,-0.1909,0.089,0.6386,-0.2618]},{"id":218,"tgK":507.15,"scaled":[-0.9628,-0.9398,-0.8274,-0.4439,0.2463,-0.325,-0.2011,-0.3177,-0.1375,-0.1033,0,-0.9138,-0.9235,-0.306,-0.1909,0.9152,-0.4397,-0.9207]},{"id":2154,"tgK":249.15,"scaled":[0.6527,-0.6231,-1.2152,-1.1487,-0.9421,-0.325,4.0687,5.7081,-0.1375,-0.1033,0,2.6461,-1.2298,-1.2788,-0.1909,2.7366,-1.7016,0.718]},{"id":5267,"tgK":431.15,"scaled":[0.0575,0.0103,0.336,1.3181,-0.9421,-0.325,-0.2011,-0.3177,-0.1375,-0.1033,0,0.1332,-0.0044,0.6667,-0.1909,0.2021,0.75,0.0346]},{"id":3721,"tgK":482.15,"scaled":[1.3046,1.3403,1.4994,0.6133,1.4347,-0.325,-0.2011,-0.3177,-0.1375,-0.1033,0,0.7615,1.8339,1.6395,-0.1909,-0.376,0.9328,1.1714]},{"id":429,"tgK":532.15,"scaled":[0.2276,0.3903,0.9177,-0.4439,0.2463,-0.325,-0.2011,-0.3177,-0.1375,-0.1033,0,-0.2856,0.6084,-0.7924,-0.1909,-0.8531,1.4033,0.1172]},{"id":5160,"tgK":474.15,"scaled":[0.0859,0.0103,-0.4396,0.2609,0.2463,-0.325,-0.2011,-0.3177,-0.1375,-0.1033,0,-0.2856,0.9148,0.6667,-0.1909,-0.1394,-0.4931,-0.0477]},{"id":4921,"tgK":452.15,"scaled":[-0.5376,-0.4331,-0.4396,-0.4439,-0.9421,-0.325,-0.2011,-0.3177,5.137,-0.1033,0,-0.495,-0.3107,-0.7924,-0.1909,-0.0644,0.0496,-0.3488]},{"id":6211,"tgK":440.65,"scaled":[-0.7077,-0.8131,-0.4396,0.2609,-0.9421,1.3221,-0.2011,-0.3177,-0.1375,-0.1033,0,-0.495,-0.6171,-0.306,-0.1909,0.7515,0.2939,-0.6735]},{"id":6112,"tgK":516.15,"scaled":[-0.1409,0.0736,0.336,-0.0915,-0.9421,-0.325,-0.2011,-0.3177,-0.1375,-0.1033,0,-0.0762,-0.0044,-0.306,-0.1909,-0.9031,1.0224,-0.1794]},{"id":6160,"tgK":365.15,"scaled":[-0.2826,0.0103,0.336,-0.0915,-0.9421,-0.325,-0.2011,-0.3177,-0.1375,-0.1033,0,-0.2856,-0.0044,-1.2788,-0.1909,-0.784,1.2573,-0.2288]},{"id":3501,"tgK":270.75,"scaled":[0.341,0.4536,-0.4396,2.7277,0.2463,-0.325,-0.2011,-0.3177,-0.1375,-0.1033,0,-0.2856,-0.6171,1.6395,-0.1909,1.5231,-0.629,0.7592]},{"id":887,"tgK":382.15,"scaled":[-0.1125,-0.1164,-0.4396,0.6133,0.2463,-0.325,-0.2011,-0.3177,-0.1375,-0.1033,0,-0.2856,-0.6171,1.6395,-0.1909,0.4352,-0.3609,-0.0807]},{"id":6997,"tgK":569.15,"scaled":[-0.3676,-0.4964,-0.3103,-0.0915,0.2463,1.3221,-0.2011,-0.3177,-0.1375,-0.1033,0,-0.495,0.302,-0.306,-0.1909,0.4846,0.1185,-0.377]},{"id":4081,"tgK":475.15,"scaled":[0.6244,0.7703,1.1116,0.6133,0.2463,-0.325,-0.2011,-0.3177,-0.1375,-0.1033,0,0.5521,0.6084,0.6667,-0.1909,-0.3505,1.1586,0.6113]},{"id":1450,"tgK":319.15,"scaled":[-1.0195,-1.0664,-0.8274,-0.7963,-0.9421,-0.325,-0.2011,0.3518,-0.1375,-0.1033,0,-0.7044,-0.9235,-0.7924,-0.1909,0.4352,-0.3609,-1.0443]},{"id":5048,"tgK":326.15,"scaled":[-0.3393,-0.1164,-0.0518,0.6133,-0.9421,-0.325,-0.2011,-0.3177,-0.1375,-0.1033,0,-0.495,-0.3107,-0.306,-0.1909,0.0467,0.5968,-0.196]},{"id":1679,"tgK":234.15,"scaled":[-1.2745,-1.3198,-1.2152,-0.7963,-0.3479,-0.325,-0.2011,-0.3177,-0.1375,-0.1033,0,-0.9138,-1.2298,-0.7924,-0.1909,0.5535,-1.7016,-1.3407]},{"id":770,"tgK":603.15,"scaled":[-0.7927,-1.3831,-1.2152,-0.7963,-0.9421,-0.325,-0.2011,2.0257,2.4997,-0.1033,0,0.1332,-0.9235,-1.2788,-0.1909,3.155,-1.7016,-0.7546]},{"id":3905,"tgK":526.15,"scaled":[-0.0842,-0.0531,0.336,0.2609,0.2463,-0.325,-0.2011,-0.3177,-0.1375,-0.1033,0,-0.2856,0.302,0.1803,-0.1909,0.0586,0.9386,-0.0971]},{"id":7341,"tgK":386.5,"scaled":[-0.9628,-0.9398,-0.4396,-0.4439,-0.9421,1.3221,-0.2011,